,dim_0,dim_1,dim_2,dim_3,dim_4,dim_5,dim_6,dim_7,dim_8,dim_9,dim_10,dim_11,dim_12,dim_13,dim_14,dim_15,dim_16,dim_17,dim_18,dim_19,dim_20,dim_21,dim_22,dim_23,dim_24,dim_25,dim_26,dim_27,dim_28,dim_29,dim_30,dim_31,dim_32,dim_33,dim_34,dim_35,dim_36,dim_37,dim_38,dim_39,dim_40,dim_41,dim_42,dim_43,dim_44,dim_45,dim_46,dim_47,dim_48,dim_49,dim_50,dim_51,dim_52,dim_53,dim_54,dim_55,dim_56,dim_57,dim_58,dim_59,dim_60,dim_61,dim_62,dim_63
PIK3CA,-0.15272771,-0.05231981,0.23863705,0.043446116,-0.33488256,-0.400917,0.13794824,0.29370648,0.3170541,-0.18105376,-0.13599986,-0.27386132,0.27162862,0.26327026,-0.2675393,0.4350906,0.2332443,-0.42662328,0.27764302,0.3431245,-0.057708345,0.45992106,0.35049146,0.36914912,0.2208516,-0.32726383,0.33451748,-0.26026216,-0.18532312,0.17092144,-0.29645854,-0.39480376,0.21182504,0.27320078,-0.418339,-0.08249132,-0.22048941,0.3794157,-0.10812971,0.4462105,-0.40831274,0.2867472,0.36581343,0.21903867,0.22941956,0.31300604,-0.33855176,0.31677568,0.064990275,-0.22655442,-0.29410082,-0.35708582,0.1587665,-0.083326645,-0.29365355,0.09203866,-0.19164765,0.171566,-0.19377522,0.34308708,0.2516771,0.064477205,0.29826683,-0.31506094
RNF43,-0.14521481,-0.07719566,0.23683071,0.06827062,-0.33596802,-0.38782722,0.13043982,0.26211253,0.30047107,-0.18468423,-0.07627919,-0.27610585,0.25845188,0.25330088,-0.25444257,0.43185866,0.21760072,0.06609189,0.23282556,0.33395,-0.08757363,-0.07409024,0.32865995,0.36575612,0.18329029,-0.32361567,0.31634876,-0.23956594,-0.16731112,0.16142948,-0.26712656,-0.3915327,0.22469921,0.27141136,-0.41009825,-0.062254265,-0.21791264,0.37492257,-0.08821551,0.42302424,-0.39113194,0.27295685,0.354662,0.22151259,0.20175947,0.30734423,-0.3324859,0.30627906,0.06945584,-0.22313422,-0.28760207,-0.33313137,0.1466635,-0.04673945,-0.28992707,0.0925114,-0.18421303,0.1661003,-0.18228479,0.33210385,-0.018462658,0.05233453,0.25949183,-0.31362203
GATA3,-0.15686095,-0.047992807,0.24143896,0.03911505,-0.34188676,-0.4020918,0.1625787,0.30245793,0.32005006,-0.18099019,-0.14647064,-0.26296258,0.28028533,0.26834217,-0.2746172,0.43090138,0.24381778,-0.47906697,0.30529922,0.3488502,-0.030438844,0.51693565,0.3600447,0.37298894,0.24489892,-0.31901544,0.33627552,-0.27378806,-0.1857028,0.17355938,-0.3117171,-0.39504814,0.21643803,0.2683185,-0.4127407,-0.08494645,-0.22431716,0.38264513,-0.118721195,0.45478803,-0.41176027,0.2893898,0.35939664,0.2233789,0.2513268,0.3117874,-0.33799607,0.32676616,0.059620507,-0.22664595,-0.29825592,-0.36454394,0.16988565,-0.114484526,-0.29564762,0.09904694,-0.19880906,0.18106285,-0.20002078,0.3529839,0.23658246,0.07013344,0.32075256,-0.31629086
ALK,-0.13941224,-0.075026885,0.22731242,0.06524406,-0.3226613,-0.37015408,0.12839201,0.25504002,0.28827178,-0.1776442,-0.07040183,-0.2639515,0.25067246,0.24422216,-0.24692434,0.41825306,0.21003008,0.06108143,0.2237578,0.32694262,-0.08448522,-0.075388074,0.31536123,0.35464644,0.17731012,-0.3076982,0.3061688,-0.23025735,-0.16447459,0.15775767,-0.25767928,-0.38005924,0.2160201,0.26394343,-0.3959058,-0.059557185,-0.21098334,0.35886362,-0.08464068,0.41033107,-0.3766482,0.26303276,0.3374812,0.21277201,0.19934353,0.29858595,-0.32222566,0.2968911,0.06701388,-0.21323569,-0.27704525,-0.32191238,0.13838728,-0.047832534,-0.280157,0.09217544,-0.1783804,0.16225623,-0.17606457,0.32316762,-0.019002778,0.052219607,0.25053865,-0.29872045
ESR1,-0.1310192,-0.06727769,0.2122406,0.06031122,-0.30759925,-0.3500724,0.12091324,0.24677172,0.2720848,-0.164531,-0.06923638,-0.24433857,0.23821647,0.23175907,-0.23520824,0.39677408,0.20212549,0.000813853,0.21722841,0.3108915,-0.07510707,-0.034454085,0.3018963,0.3348203,0.1732155,-0.2866007,0.28989416,-0.22015649,-0.1552302,0.14935818,-0.24910668,-0.36109918,0.2018294,0.25025487,-0.37683946,-0.057182044,-0.20027529,0.33659923,-0.078949325,0.39321864,-0.35547635,0.24767902,0.31095463,0.19871883,0.19543722,0.28115112,-0.30444413,0.27923462,0.0625318,-0.19908434,-0.25977835,-0.30984914,0.12777431,-0.04876525,-0.26394612,0.08697457,-0.16705458,0.15619476,-0.16987632,0.3071396,0.006579916,0.051226202,0.24018875,-0.28190696
TP53,-0.16221434,-0.026137948,0.2511934,0.01992012,-0.35456735,-0.42969626,0.15051189,0.3263731,0.338983,-0.18813586,-0.1958727,-0.28165525,0.28638774,0.28021717,-0.28084737,0.44751328,0.25286037,-0.9084736,0.331734,0.3604318,-0.035203114,0.97169226,0.38621587,0.39585704,0.2656399,-0.33464962,0.3660286,-0.29715008,-0.20022994,0.17981425,-0.33826697,-0.41216502,0.21213537,0.2743761,-0.43616974,-0.10350494,-0.23039739,0.40271354,-0.13209407,0.48540324,-0.44175386,0.30785456,0.39152217,0.22896504,0.2634612,0.33130312,-0.3524878,0.34114254,0.07289148,-0.23301715,-0.31583333,-0.3859526,0.1824354,-0.11394164,-0.30799538,0.08935922,-0.20646355,0.18052183,-0.20455894,0.3652899,0.51821536,0.07631921,0.34571612,-0.33099708
POLE,-0.16829987,-0.114229664,0.25451815,0.08619793,-0.3194961,-0.4331744,0.122135565,0.2933841,0.33638322,-0.21401355,-0.05665257,-0.34105432,0.27978754,0.27165705,-0.27111155,0.47687238,0.20976558,0.19377272,0.22883996,0.34563187,-0.14515957,-0.16403127,0.3518979,0.38068408,0.1909885,-0.35041797,0.3210462,-0.2551355,-0.19461358,0.17496635,-0.25140885,-0.4130368,0.23098545,0.306262,-0.44667894,-0.066996664,-0.23634344,0.41739148,-0.09939612,0.44157812,-0.3995267,0.28970593,0.3986677,0.24104692,0.219326,0.35923272,-0.34728652,0.31961328,0.08570455,-0.23308852,-0.30896556,-0.34120345,0.15611595,-0.030527465,-0.29693282,0.10451089,-0.19989133,0.16796364,-0.20471457,0.339609,-0.06638496,0.07016674,0.26257992,-0.34023273
NOTCH4,-0.13881607,-0.063800775,0.22602628,0.056790806,-0.3209819,-0.37037367,0.13231163,0.2633251,0.2891957,-0.17355144,-0.089303926,-0.25705272,0.25301066,0.24663833,-0.2506538,0.4129586,0.21517275,-0.11084646,0.23720561,0.32647577,-0.06921974,0.10373527,0.3217431,0.35390568,0.18963352,-0.30614394,0.30966824,-0.237028,-0.16775724,0.16139798,-0.26992986,-0.3807851,0.21169701,0.26332685,-0.39550784,-0.06528115,-0.21168648,0.3579065,-0.09059913,0.4143232,-0.3783158,0.2646133,0.33427405,0.2106294,0.20785375,0.2970273,-0.32359922,0.2972195,0.062292673,-0.21367705,-0.27668962,-0.32758147,0.14170422,-0.061445676,-0.2797895,0.09160039,-0.17792921,0.16657588,-0.18068106,0.32336822,0.06965573,0.055313274,0.26129925,-0.29624048
INPP4B,-0.13684121,-0.072443716,0.21995103,0.06360837,-0.31644857,-0.36286306,0.12575534,0.25264263,0.28211617,-0.17332914,-0.07272913,-0.25560796,0.24614775,0.23921199,-0.24267703,0.4087625,0.20724584,0.032444846,0.22165468,0.32092202,-0.08083917,-0.04983111,0.30884397,0.34536302,0.17655814,-0.29754573,0.30064303,-0.22718614,-0.1613557,0.15530516,-0.25392842,-0.37171376,0.21159333,0.2580635,-0.38993055,-0.057571907,-0.20731747,0.3492058,-0.08404899,0.40475914,-0.3681282,0.25648805,0.32540822,0.20769276,0.19927552,0.29278487,-0.3152648,0.29109076,0.0664938,-0.20717621,-0.27030408,-0.31641066,0.13299836,-0.050898097,-0.272806,0.091906115,-0.17440818,0.1597871,-0.17587483,0.319171,-0.0075689517,0.0533866,0.24527204,-0.2916111
FLT4,-0.15108348,-0.08303569,0.23383124,0.06804766,-0.32467747,-0.39071792,0.12359229,0.27100754,0.30688262,-0.18370816,-0.08289153,-0.2830174,0.2530368,0.25781417,-0.25249147,0.42989674,0.22111431,0.020527905,0.23296437,0.33119762,-0.09546506,-0.025961628,0.33001232,0.3529969,0.18233952,-0.3156196,0.3094005,-0.24735945,-0.17270994,0.16395001,-0.26375377,-0.37719697,0.21207792,0.27675393,-0.40831017,-0.063497126,-0.2141556,0.37777978,-0.09027235,0.42272058,-0.3822506,0.2716661,0.3604086,0.21379253,0.20633438,0.3155521,-0.32493588,0.30425823,0.07573858,-0.21535319,-0.2840254,-0.33048132,0.13979515,-0.046617225,-0.28349525,0.087549925,-0.19005054,0.16058844,-0.19222338,0.32825917,0.00060069375,0.05926708,0.25785902,-0.3193996
ERBB4,-0.14131048,-0.066332616,0.23105788,0.05815854,-0.32744974,-0.37794912,0.13447076,0.2647587,0.2942561,-0.17791933,-0.08901156,-0.26326323,0.25732493,0.25060028,-0.25417355,0.41979587,0.21758947,-0.08386206,0.238873,0.33217758,-0.07094851,0.083928466,0.327088,0.36024332,0.19187076,-0.31353116,0.31569308,-0.24010783,-0.16991308,0.1643404,-0.2715743,-0.38664696,0.21624526,0.2665879,-0.40233028,-0.065709986,-0.21505997,0.36376834,-0.09156604,0.4195958,-0.38444573,0.26921105,0.3422048,0.21549842,0.20911795,0.30221152,-0.32887664,0.30241084,0.062521115,-0.21887696,-0.28177017,-0.33195916,0.14412448,-0.060972232,-0.28508782,0.094445,-0.18098457,0.1684475,-0.18194501,0.32868412,0.054432813,0.055626564,0.26379493,-0.30218294
SOX17,-0.13900314,-0.07079883,0.22405872,0.06304983,-0.3219943,-0.36983615,0.12602192,0.25603044,0.28731507,-0.1768674,-0.077692136,-0.26170814,0.25065723,0.24343604,-0.24635485,0.41633898,0.21058926,-0.011555629,0.2259813,0.32583183,-0.082924396,-0.009964278,0.3161056,0.35313618,0.17924324,-0.30482608,0.30756366,-0.23151113,-0.16426516,0.15857494,-0.25804818,-0.37868536,0.21418284,0.26127306,-0.3959589,-0.0618103,-0.2098495,0.35380155,-0.08489453,0.41162074,-0.37478846,0.26086906,0.33327985,0.21157694,0.20073265,0.29654527,-0.32173628,0.2944678,0.066888064,-0.2122543,-0.27562132,-0.32250714,0.13732791,-0.04825572,-0.2770053,0.09283451,-0.17579032,0.16187847,-0.17780602,0.32333052,0.024086174,0.052787513,0.25052112,-0.29665244
ARID1B,-0.15363787,-0.080210514,0.23810644,0.06603253,-0.32890764,-0.39637393,0.12727894,0.27738872,0.3118173,-0.18580236,-0.09148438,-0.2860541,0.25828165,0.26256025,-0.2575924,0.4337249,0.22601345,-0.048695717,0.24131218,0.33522737,-0.09170039,0.051455062,0.33805898,0.3598488,0.18975236,-0.32132807,0.31582704,-0.25334337,-0.17657399,0.16756171,-0.2712871,-0.38330787,0.2138686,0.27987552,-0.41375375,-0.068323806,-0.21779245,0.38321853,-0.09489332,0.4287625,-0.39042786,0.2762542,0.36672747,0.21701707,0.21137872,0.3195201,-0.33057624,0.30886826,0.07524869,-0.21977258,-0.2887743,-0.33734304,0.14444925,-0.051701307,-0.2881511,0.08911462,-0.19305348,0.16456963,-0.19567013,0.33258587,0.04064979,0.06175836,0.26599446,-0.323118
MAP3K1,-0.14146997,-0.07387395,0.23111257,0.065947354,-0.329821,-0.37781215,0.13012178,0.25639027,0.29124692,-0.18001056,-0.075711966,-0.2672425,0.2535438,0.24782506,-0.25037774,0.42287493,0.21332821,0.06021381,0.2300296,0.32882023,-0.0848885,-0.0736468,0.3211334,0.3571376,0.17989488,-0.31562436,0.31015486,-0.23440734,-0.16482829,0.15741244,-0.26243466,-0.38219345,0.21892017,0.26634634,-0.40243185,-0.061223507,-0.21217808,0.36666274,-0.08725982,0.4149109,-0.3828752,0.2674929,0.34388477,0.21878888,0.19931176,0.30018538,-0.3243447,0.30109125,0.06833494,-0.21845138,-0.2808226,-0.32732853,0.14380394,-0.04749897,-0.28447378,0.09210126,-0.17846203,0.16110347,-0.1780581,0.32608396,-0.016960718,0.04996837,0.25484368,-0.30644768
ARID2,-0.13906947,-0.074619986,0.22321332,0.06506123,-0.31828666,-0.36634293,0.12685348,0.253132,0.28479683,-0.17510173,-0.06987591,-0.25904417,0.24841705,0.2413936,-0.24417335,0.41371006,0.20881331,0.051828243,0.22146915,0.3236395,-0.08297135,-0.06971966,0.31196773,0.35062945,0.17663762,-0.30104038,0.3028836,-0.2291878,-0.16110253,0.15669177,-0.2564133,-0.3761097,0.214272,0.2618945,-0.3918559,-0.057805523,-0.20966661,0.35479933,-0.08430841,0.40690053,-0.37068737,0.25856876,0.330099,0.2098944,0.19976856,0.29530585,-0.31829083,0.29381022,0.06696003,-0.21016616,-0.273018,-0.31832469,0.13611507,-0.048589826,-0.27577403,0.09127502,-0.17624599,0.16097182,-0.17586172,0.31967682,-0.015839253,0.052659504,0.24736163,-0.29557243
ATR,-0.1421353,-0.076340154,0.22343983,0.06606299,-0.32093745,-0.3727499,0.12643349,0.25573358,0.2877974,-0.1753335,-0.07174524,-0.26276103,0.25125912,0.24559975,-0.24804938,0.42027754,0.21120523,0.06908032,0.22761501,0.32313576,-0.08340193,-0.076984495,0.31404668,0.34917384,0.17925885,-0.30749968,0.30372697,-0.22997004,-0.1639635,0.15644757,-0.2553603,-0.3730231,0.2121841,0.26285708,-0.39661226,-0.05780506,-0.21018234,0.35968935,-0.08851714,0.40929785,-0.3774348,0.2600878,0.33717793,0.211032,0.1989928,0.29825264,-0.31546852,0.2949189,0.07068921,-0.2104146,-0.27403003,-0.32195592,0.13699514,-0.051647134,-0.27591628,0.09167516,-0.1770394,0.15866324,-0.17913644,0.32062197,-0.02544453,0.05416131,0.25269687,-0.30123574
AGO2,-0.13669646,-0.0741903,0.21833834,0.06368896,-0.31414697,-0.3603297,0.12636207,0.2513501,0.28034943,-0.17191407,-0.06669294,-0.25468522,0.2465443,0.23915178,-0.24171956,0.40781918,0.2068347,0.06593563,0.21937731,0.31994724,-0.07836564,-0.07936108,0.30723178,0.3436633,0.17547768,-0.2954679,0.29783407,-0.2252201,-0.15890244,0.15585952,-0.25210342,-0.3711781,0.20903333,0.2586277,-0.38761297,-0.054485228,-0.20660095,0.34867007,-0.08426851,0.4019722,-0.36501396,0.25422174,0.3227576,0.20595646,0.19890375,0.29121694,-0.31398356,0.28882554,0.06562565,-0.20637938,-0.2683023,-0.31369802,0.1311982,-0.051151685,-0.2703785,0.09141584,-0.17329189,0.15971965,-0.17638028,0.31658974,-0.030525226,0.054620825,0.2434908,-0.29106885
TCF7L2,-0.15580192,-0.076565556,0.24250484,0.06249272,-0.33350587,-0.40417916,0.13096261,0.2833909,0.31814432,-0.18850863,-0.10140529,-0.29056117,0.2639494,0.26665246,-0.26231354,0.43913203,0.22966588,-0.11281179,0.24964555,0.34080195,-0.08823581,0.12615645,0.34569323,0.36627927,0.19723265,-0.32866102,0.32398656,-0.25876793,-0.18102977,0.17200658,-0.27916002,-0.38986608,0.21667773,0.28273305,-0.4199225,-0.07172746,-0.22111094,0.3892475,-0.09920009,0.4368708,-0.3979508,0.2828666,0.3748927,0.22124477,0.2162677,0.32403004,-0.33706856,0.3148591,0.07408695,-0.22512624,-0.29450226,-0.34332436,0.1506264,-0.056688875,-0.29366618,0.09099215,-0.19609095,0.16753414,-0.19865403,0.33833948,0.07685092,0.062808774,0.27460447,-0.32690805
NRAS,-0.11566956,-0.043369845,0.19665356,0.049500145,-0.29603857,-0.33958,0.09146936,0.23491013,0.25811082,-0.15658471,-0.077515766,-0.23989591,0.21860568,0.20673585,-0.21273385,0.38782477,0.18147478,-0.19028932,0.20116724,0.30259764,-0.10019365,0.07613806,0.2910904,0.3258811,0.14602274,-0.27193183,0.28669465,-0.2113437,-0.15092489,0.1291171,-0.23158279,-0.34520563,0.19277488,0.23700976,-0.36566132,-0.060462624,-0.18230821,0.32025254,-0.05698953,0.3876716,-0.34666055,0.23759809,0.3037136,0.19541678,0.17914487,0.2644295,-0.2943011,0.26608497,0.06280946,-0.1879107,-0.25081885,-0.29690883,0.12347802,-0.007635396,-0.2568785,0.071894675,-0.15001631,0.1318434,-0.14460312,0.2966169,0.14022706,0.03513387,0.22727694,-0.26444152
ERBB2,-0.13765281,-0.06818267,0.22147799,0.060452946,-0.3195027,-0.36737707,0.12594146,0.25611416,0.28538316,-0.17479122,-0.07901637,-0.2587875,0.24915278,0.24164715,-0.24389908,0.41332823,0.20937583,-0.024861192,0.2261477,0.3247109,-0.079654865,0.0075291432,0.31350958,0.3501138,0.18055762,-0.3020384,0.30657762,-0.23033544,-0.16359092,0.15781605,-0.258322,-0.37597507,0.21247928,0.25922766,-0.39367476,-0.06029536,-0.20870659,0.35246038,-0.08532365,0.41011387,-0.37317997,0.26002836,0.33021167,0.21028322,0.20204328,0.2945822,-0.31983793,0.2940601,0.06646457,-0.2105549,-0.27334136,-0.32051718,0.13641004,-0.0508268,-0.27562743,0.09280906,-0.17542131,0.16062164,-0.17643876,0.32215145,0.027384773,0.053685494,0.25067568,-0.2943966
ASXL1,-0.16882354,-0.115522034,0.25014716,0.085458174,-0.31178197,-0.42915854,0.11903717,0.29426837,0.3349218,-0.21243897,-0.05382444,-0.34100538,0.27786714,0.26964128,-0.26893884,0.47534823,0.20648433,0.19285339,0.22632143,0.3417443,-0.14796549,-0.1632835,0.3497643,0.37379906,0.18923278,-0.34596467,0.31546706,-0.2534323,-0.19423005,0.17359176,-0.24677876,-0.40785205,0.22552286,0.30656627,-0.44412166,-0.06621897,-0.23460802,0.41434184,-0.09860024,0.43803123,-0.39242935,0.28739148,0.39494827,0.23845947,0.2194235,0.35832918,-0.34328562,0.31608176,0.084423654,-0.22954777,-0.3066271,-0.33755633,0.15341794,-0.028349109,-0.2924479,0.103857815,-0.19635808,0.1646429,-0.20575562,0.3362396,-0.06499297,0.07070612,0.2593251,-0.33800966
EPHA5,-0.16818947,-0.11414926,0.25475368,0.08617298,-0.31981587,-0.43392956,0.121409975,0.2933799,0.33707792,-0.21454582,-0.05700874,-0.34218302,0.27986014,0.27134192,-0.2713951,0.4775647,0.20954743,0.19038263,0.22872975,0.34553573,-0.14651176,-0.16165444,0.35278392,0.38086998,0.1911239,-0.3511272,0.32157633,-0.2551572,-0.19488214,0.17490643,-0.25045416,-0.41283023,0.23130195,0.30582774,-0.44715124,-0.06758065,-0.23656182,0.41701603,-0.09847388,0.4418788,-0.39958012,0.29021248,0.39950657,0.2414898,0.21891855,0.35944396,-0.3476431,0.31952667,0.08549534,-0.23351681,-0.30904156,-0.34110302,0.15651904,-0.0294783,-0.29663786,0.10477771,-0.19939268,0.16739917,-0.20482253,0.3399862,-0.06345028,0.06961395,0.2620753,-0.34026265
PDGFRA,-0.13345945,-0.070706084,0.21361472,0.06266249,-0.3109156,-0.35371524,0.120701924,0.24924994,0.27618822,-0.16822326,-0.067585506,-0.24996156,0.24124634,0.2340885,-0.2372958,0.40230164,0.20405042,0.03694896,0.21689548,0.31465316,-0.078892745,-0.061805233,0.3019768,0.3376108,0.17410134,-0.2892281,0.29282242,-0.22060063,-0.15768726,0.15112332,-0.24689874,-0.36387557,0.20494233,0.25312737,-0.38260975,-0.054999743,-0.20257993,0.339239,-0.08018346,0.397946,-0.35987473,0.25017545,0.3154596,0.20250124,0.19679429,0.28480715,-0.3090491,0.28301263,0.06556928,-0.20155698,-0.26319838,-0.31072485,0.12620664,-0.04842769,-0.26498932,0.090194725,-0.16908334,0.15657048,-0.174267,0.31358185,-0.012145814,0.053020157,0.2397197,-0.28604573
BRCA1,-0.13686348,-0.07274857,0.21925382,0.06344913,-0.31427056,-0.36096752,0.12663516,0.25262073,0.28157642,-0.1717981,-0.07066555,-0.25420073,0.24594006,0.2393477,-0.24268235,0.40842396,0.2077273,0.041011963,0.22136328,0.3197604,-0.07912721,-0.05677317,0.30804726,0.34500343,0.17684057,-0.29680747,0.2992645,-0.2268672,-0.16078071,0.15533319,-0.2548808,-0.37183252,0.21066865,0.2593338,-0.38748974,-0.0566466,-0.20686683,0.3498717,-0.08443509,0.4032511,-0.36695033,0.2558035,0.32506013,0.20679602,0.1991292,0.29177853,-0.31473842,0.2907884,0.065700926,-0.20664574,-0.26980364,-0.31562117,0.13290673,-0.05155207,-0.27182567,0.09119806,-0.17438921,0.1603737,-0.17673536,0.31740415,-0.014242621,0.053632576,0.2459313,-0.29164448
CREBBP,-0.14721039,-0.077698946,0.2264393,0.06375184,-0.31436616,-0.3810166,0.12334184,0.26938182,0.29860216,-0.17734954,-0.08492055,-0.27114445,0.25367302,0.247325,-0.25134766,0.4237154,0.21315777,-0.046011988,0.23757471,0.3237582,-0.08573496,0.04951038,0.32232156,0.34679317,0.18913046,-0.3072082,0.30318898,-0.23708181,-0.17035544,0.156257,-0.25911927,-0.37466064,0.20780885,0.26684222,-0.39996287,-0.06512743,-0.21047516,0.36470503,-0.091659404,0.4164183,-0.3773056,0.26485425,0.34381944,0.20844609,0.20794478,0.30545864,-0.3152664,0.29717216,0.07153787,-0.20893806,-0.27745792,-0.32903388,0.13848728,-0.057635672,-0.27378517,0.088108525,-0.18162096,0.15859655,-0.18498066,0.3223006,0.0400448,0.059677377,0.26082695,-0.30313033
MDC1,-0.13791898,-0.071787,0.22193894,0.06275759,-0.31955102,-0.36642754,0.1260322,0.25449094,0.2849398,-0.17497253,-0.07332969,-0.25906447,0.24912408,0.24189946,-0.24427298,0.4134273,0.20931011,0.024191245,0.22413814,0.32426146,-0.079942375,-0.038901713,0.3120394,0.34941328,0.17963478,-0.3015455,0.3040694,-0.228546,-0.16250996,0.15772411,-0.2562287,-0.37572414,0.2128689,0.2599248,-0.39267135,-0.057952523,-0.2093753,0.3526252,-0.084775425,0.40872544,-0.3718071,0.2597984,0.32971102,0.21014775,0.20129874,0.29433292,-0.3194403,0.29327142,0.06673953,-0.21000236,-0.27289456,-0.31910622,0.13471317,-0.05046777,-0.2745655,0.09322283,-0.17583112,0.16089389,-0.17724344,0.32157266,-0.0023923218,0.053581692,0.24874166,-0.29511306
KMT2A,-0.1461265,-0.06743373,0.2255368,0.055856608,-0.31903017,-0.37813866,0.12738441,0.27097544,0.29730678,-0.17292693,-0.099802665,-0.26060903,0.25422522,0.24817276,-0.25271988,0.41906846,0.21873994,-0.15287055,0.24806619,0.32582676,-0.069401994,0.16160029,0.32429695,0.34721202,0.19685264,-0.3060444,0.30785137,-0.23973238,-0.17007518,0.15725712,-0.2692045,-0.37430617,0.2058267,0.2630487,-0.39760637,-0.068226635,-0.21013254,0.3610854,-0.094540805,0.41957206,-0.38160115,0.26661184,0.3407719,0.20643353,0.21136472,0.2995988,-0.31595245,0.29913825,0.06745772,-0.21018001,-0.2771781,-0.33425415,0.14051603,-0.06875344,-0.2754026,0.08726953,-0.1818533,0.16042778,-0.18432425,0.32486832,0.09416732,0.058774143,0.2696479,-0.30129877
PLCG2,-0.13788849,-0.071027495,0.22422807,0.064291604,-0.32420355,-0.3689972,0.12686887,0.2542197,0.28494343,-0.17490983,-0.07397592,-0.26018217,0.24821387,0.24320549,-0.24573924,0.41519043,0.21035117,0.047105163,0.22859132,0.32208663,-0.0814795,-0.06577538,0.31525198,0.34882373,0.17762801,-0.30743277,0.30231488,-0.22926107,-0.1615684,0.1524171,-0.25700152,-0.37390268,0.21183863,0.2613927,-0.3960178,-0.05979772,-0.20716873,0.3567155,-0.085072175,0.4082613,-0.37507313,0.2611203,0.33384556,0.21272297,0.19730273,0.29308242,-0.31721395,0.2939686,0.06720013,-0.2117924,-0.2742794,-0.32268736,0.1379804,-0.047349762,-0.27759904,0.09025447,-0.17336737,0.15875699,-0.17643237,0.32125086,-0.012334161,0.050469615,0.25045958,-0.2999335
KMT2C,-0.15438478,-0.06490129,0.23667759,0.052172795,-0.3318304,-0.38689986,0.16675346,0.2869232,0.30958885,-0.17657787,-0.11252093,-0.2533389,0.27479866,0.26176715,-0.27029553,0.4216352,0.23804536,-0.19047117,0.28607845,0.34064648,-0.031159768,0.22401279,0.34390652,0.36140615,0.23141707,-0.3084358,0.31814906,-0.26072857,-0.1762946,0.16779159,-0.29494855,-0.38512963,0.21913284,0.26622644,-0.39851928,-0.07153033,-0.22176355,0.37510225,-0.11131398,0.4357924,-0.39556003,0.27758446,0.34367654,0.2181771,0.24192844,0.3035817,-0.32746798,0.31931388,0.056305524,-0.22096492,-0.28878832,-0.34968305,0.16028711,-0.11269872,-0.28682792,0.100752085,-0.19530046,0.18071657,-0.19774657,0.3432759,0.055081047,0.06837836,0.30317163,-0.3096319
TERT,-0.14417265,-0.07018865,0.22235137,0.05827502,-0.319907,-0.37717587,0.12512016,0.26133665,0.29202628,-0.17550169,-0.08427583,-0.26347896,0.2551434,0.24732295,-0.24940199,0.42459065,0.21380308,-0.048341755,0.23440433,0.32710093,-0.07748262,0.0491798,0.31841722,0.35270756,0.187427,-0.30807137,0.31184226,-0.23644644,-0.1686656,0.16187689,-0.2624081,-0.37548006,0.21090579,0.2636693,-0.40019974,-0.06094133,-0.21304059,0.3591775,-0.09362179,0.41757593,-0.38132858,0.26295292,0.34075332,0.2104393,0.20524691,0.30177236,-0.31963587,0.29960218,0.07008576,-0.211815,-0.27681068,-0.32670528,0.13869786,-0.058821768,-0.27789298,0.094271645,-0.1797947,0.16073957,-0.18098997,0.3242071,0.04004883,0.057109006,0.26151285,-0.3014176
TET1,-0.14621517,-0.07098746,0.22887576,0.059831504,-0.32560754,-0.38378972,0.13284718,0.26690593,0.2981479,-0.17807423,-0.088080585,-0.26708037,0.26011276,0.25350735,-0.25640166,0.42771903,0.21863148,-0.061661728,0.24089292,0.3318157,-0.07567713,0.071354985,0.3257615,0.36076725,0.19253583,-0.3162501,0.3172949,-0.24094388,-0.17252591,0.16553769,-0.26957357,-0.3841938,0.21621796,0.2691309,-0.40472972,-0.063550726,-0.21730578,0.3685071,-0.09661523,0.42132044,-0.38935515,0.26858538,0.34888256,0.21525115,0.20929131,0.3067272,-0.32623476,0.3039506,0.0688588,-0.21728262,-0.28194833,-0.33280963,0.14484993,-0.062964536,-0.28446436,0.09500042,-0.18412575,0.1667576,-0.18464133,0.32831493,0.046192273,0.05918494,0.26781607,-0.30615973
CBL,-0.13388747,-0.07158707,0.20593773,0.061775528,-0.30213797,-0.35406363,0.118123434,0.2525949,0.27450162,-0.16482002,-0.0660625,-0.24930736,0.24037465,0.23358025,-0.23743689,0.40393662,0.19900396,0.03875128,0.21832925,0.31119952,-0.0842917,-0.060299028,0.29877487,0.33000895,0.1681107,-0.28861263,0.2885487,-0.21842569,-0.15863359,0.1514598,-0.24027641,-0.35636896,0.19718114,0.25276762,-0.3793103,-0.05271543,-0.19858325,0.34224,-0.08188503,0.39214134,-0.3591466,0.24564874,0.3174694,0.19770694,0.1939435,0.2864362,-0.29980463,0.27782673,0.06884931,-0.19535638,-0.2592922,-0.3072027,0.12552041,-0.048284963,-0.2599078,0.086364575,-0.16621803,0.15031202,-0.17269023,0.30778682,-0.013119857,0.056658857,0.241483,-0.28331327
PIK3R1,-0.1363356,-0.072035804,0.21999675,0.062923476,-0.31591508,-0.36263493,0.123704985,0.25152624,0.28200614,-0.17227042,-0.069544405,-0.2562761,0.24541825,0.23853332,-0.24175334,0.41015112,0.20678708,0.047926627,0.21957834,0.32103854,-0.08160481,-0.068920135,0.30874586,0.34573084,0.17478736,-0.29835206,0.29989308,-0.22659194,-0.16029231,0.15428413,-0.25304583,-0.37223145,0.21156171,0.25896773,-0.38933277,-0.056996763,-0.20632382,0.34993014,-0.08148274,0.40454936,-0.3676809,0.25593185,0.3262547,0.20764226,0.19741404,0.2920593,-0.31578708,0.29095793,0.0658214,-0.20700309,-0.27047876,-0.31629178,0.1319825,-0.0474504,-0.2725302,0.09051692,-0.17325296,0.15844657,-0.17475334,0.31853926,-0.017291248,0.052249737,0.24532782,-0.29261476
SPEN,-0.14300713,-0.08172132,0.23894393,0.06679402,-0.32807872,-0.3842708,0.12026249,0.2654826,0.30091715,-0.18392263,-0.07597857,-0.2713014,0.25530368,0.24356054,-0.24905214,0.42099154,0.21182688,0.06385483,0.22545418,0.3293135,-0.08858139,-0.0758225,0.3250674,0.36332226,0.18096898,-0.3159853,0.31122664,-0.23498434,-0.16638336,0.15956303,-0.2663678,-0.39447743,0.21845871,0.27417287,-0.40210456,-0.06211867,-0.21199512,0.36705777,-0.08644743,0.41875723,-0.38422132,0.2691266,0.3541965,0.21346897,0.20106727,0.3048429,-0.32742208,0.30579218,0.07070291,-0.21424222,-0.28626114,-0.33278394,0.13551816,-0.04191327,-0.29108936,0.09051446,-0.19036233,0.16803521,-0.18016998,0.32894865,-0.02414302,0.053190675,0.25880462,-0.30859494
PREX2,-0.13662401,-0.0708762,0.22117606,0.062190257,-0.31642854,-0.3627218,0.12915228,0.25430608,0.28251928,-0.17112543,-0.073413596,-0.25349838,0.24725392,0.24151817,-0.24551056,0.40771943,0.20999321,0.01317371,0.22580636,0.32063752,-0.07393034,-0.026047012,0.31184658,0.34684217,0.18021336,-0.29861405,0.3004732,-0.22863254,-0.16192216,0.15581799,-0.25741947,-0.37297553,0.20966038,0.25954908,-0.38877046,-0.05875602,-0.20761448,0.35009193,-0.08523731,0.40409544,-0.36889517,0.25645417,0.3254127,0.20642793,0.20094687,0.29245782,-0.31521145,0.29041702,0.063336365,-0.20804647,-0.26992634,-0.31911227,0.13380225,-0.055634633,-0.27336136,0.09067759,-0.17419234,0.1628895,-0.17683452,0.31731564,-0.0030194968,0.05439046,0.24879634,-0.29223257
DROSHA,-0.13655695,-0.07391376,0.22077817,0.063938245,-0.31663668,-0.3630883,0.1268141,0.25201046,0.2828245,-0.17324497,-0.068964384,-0.257163,0.24662474,0.24064623,-0.24326244,0.41027448,0.20837697,0.060760476,0.22084665,0.32172212,-0.08047542,-0.07662062,0.3095174,0.34633535,0.17564788,-0.2990963,0.30040184,-0.2274323,-0.16119798,0.15442738,-0.25232652,-0.37261555,0.21169673,0.26009893,-0.390545,-0.056703314,-0.2071714,0.3503906,-0.083389744,0.40465978,-0.36820608,0.2559656,0.32754254,0.20836894,0.19843437,0.29331487,-0.3163547,0.29196045,0.06638241,-0.2072354,-0.27080417,-0.3164484,0.13232425,-0.049379963,-0.27333924,0.0911682,-0.17387605,0.1602853,-0.17604409,0.3197152,-0.025297143,0.053276815,0.24537906,-0.29362965
GRIN2A,-0.1432024,-0.06560465,0.23475975,0.057444215,-0.33116078,-0.38375235,0.13628863,0.2684662,0.29861704,-0.1812273,-0.09448247,-0.26743516,0.26082727,0.25383648,-0.2573376,0.42430708,0.22014925,-0.11539893,0.24311915,0.33657405,-0.07216911,0.11719175,0.33140442,0.3659681,0.19505501,-0.31862295,0.32144243,-0.24344775,-0.17296147,0.1667943,-0.2758771,-0.39187282,0.21932673,0.26921412,-0.40753508,-0.067868724,-0.21825881,0.36903417,-0.093640536,0.4255872,-0.390864,0.27403867,0.348634,0.2189163,0.21172468,0.30647954,-0.33394694,0.30660844,0.06352725,-0.22321197,-0.28633565,-0.33615962,0.14914022,-0.061911047,-0.28935006,0.09532287,-0.18399622,0.17035232,-0.18345731,0.3330782,0.07624374,0.055327225,0.2682109,-0.30563483
BRCA2,-0.14860101,-0.062208127,0.23190282,0.051867522,-0.32637435,-0.38842905,0.13244106,0.27986255,0.30573064,-0.17661089,-0.113977425,-0.26621565,0.2615544,0.25475076,-0.25978,0.4263534,0.2249904,-0.25200185,0.25975123,0.33339456,-0.06545929,0.27038214,0.33515933,0.3572958,0.20614018,-0.31556883,0.31930384,-0.24812847,-0.17656478,0.16284591,-0.2799766,-0.38351965,0.20968226,0.26805177,-0.40651312,-0.07395723,-0.21470231,0.36939842,-0.09954827,0.4307561,-0.3936991,0.27505657,0.35169885,0.21196681,0.21795145,0.30593854,-0.32554835,0.3071283,0.06681493,-0.2174739,-0.28478628,-0.34405512,0.14787321,-0.07487826,-0.28335625,0.089660086,-0.18593147,0.16543823,-0.18850458,0.33295342,0.15118623,0.060899846,0.2813281,-0.30716935
SLX4,-0.14244401,-0.07445966,0.23239085,0.066336945,-0.3308247,-0.3797012,0.1311529,0.257013,0.29235372,-0.1807374,-0.07581992,-0.26786712,0.25478706,0.24942556,-0.25220716,0.42499807,0.21487293,0.06749533,0.23140648,0.3300619,-0.08395595,-0.07793476,0.32286963,0.35914665,0.18077402,-0.31771165,0.3112766,-0.23545703,-0.1652485,0.15795642,-0.26332098,-0.38392186,0.21990463,0.26780984,-0.40451586,-0.061173193,-0.21343902,0.36844164,-0.08827897,0.4165418,-0.38479242,0.26846528,0.3457475,0.21912812,0.19989783,0.30177632,-0.32561025,0.3027801,0.06843087,-0.22014779,-0.2823862,-0.32898375,0.14508209,-0.048645582,-0.28533912,0.09265141,-0.17950307,0.16233648,-0.17907803,0.3274482,-0.021271586,0.0502951,0.25600225,-0.30809814
INPPL1,-0.13575011,-0.072307475,0.21709397,0.06354549,-0.31240144,-0.35896373,0.122687355,0.25189477,0.2797868,-0.16985823,-0.06615754,-0.25365973,0.2440729,0.2373836,-0.24050263,0.408174,0.20623565,0.04670822,0.21881844,0.3172532,-0.080191344,-0.06711303,0.30675137,0.3441984,0.17369913,-0.29397988,0.29651666,-0.22443195,-0.15850188,0.15313816,-0.25083968,-0.36933646,0.20878236,0.2581872,-0.38655472,-0.05563749,-0.20543942,0.34788597,-0.08268377,0.4016669,-0.3660376,0.25206617,0.32235882,0.20460036,0.19819541,0.28976065,-0.31336197,0.287722,0.068340674,-0.20362002,-0.26688498,-0.3134694,0.13039315,-0.047554962,-0.26858062,0.08931316,-0.17184171,0.15829703,-0.17419937,0.31576476,-0.016115002,0.05403805,0.24443907,-0.28957787
PTEN,-0.13983542,-0.073806874,0.22537214,0.06432026,-0.31976897,-0.36963105,0.1295713,0.25619394,0.28842932,-0.1756449,-0.075323045,-0.26098493,0.25113505,0.24456683,-0.24774241,0.41489142,0.21225093,0.02150363,0.22629035,0.32599175,-0.08075796,-0.034098804,0.31582153,0.35324472,0.18074784,-0.30553603,0.30663013,-0.23220646,-0.16427442,0.15872282,-0.26021847,-0.37983012,0.2164002,0.2637704,-0.39448383,-0.059482314,-0.21134108,0.3581347,-0.08638658,0.41017735,-0.37541744,0.26230875,0.33511347,0.21096894,0.201264,0.29821754,-0.32181507,0.2969662,0.065820664,-0.21263479,-0.2756697,-0.3215168,0.1388556,-0.051561166,-0.2777565,0.092225544,-0.1781405,0.16368896,-0.17904946,0.32304847,-0.00018682703,0.05408161,0.25062653,-0.29800674
ARID1A,-0.15242547,-0.084286176,0.23672521,0.06888716,-0.32721943,-0.3944171,0.12503442,0.27144128,0.30912834,-0.18594824,-0.083923556,-0.2864096,0.25525284,0.25972745,-0.25431734,0.43274242,0.22239149,0.021661466,0.2340436,0.3335763,-0.09758681,-0.02597332,0.33310735,0.35634845,0.18272993,-0.31924522,0.31237695,-0.24953723,-0.17361388,0.1652854,-0.26573443,-0.38015434,0.21464367,0.27819514,-0.4107461,-0.06493672,-0.215821,0.3813085,-0.091481455,0.42472208,-0.38529456,0.2737135,0.3645134,0.21623239,0.2062945,0.31828815,-0.32731953,0.306808,0.07637472,-0.21753514,-0.28648803,-0.3321172,0.14253485,-0.045964338,-0.28618738,0.087852,-0.1916773,0.16144615,-0.19279373,0.32971033,0.0029113702,0.058959052,0.25964338,-0.321541
CTNNB1,-0.1388863,-0.073619634,0.22359027,0.06475123,-0.31867054,-0.36779338,0.12534994,0.25308055,0.28555584,-0.17587826,-0.07249311,-0.25990567,0.24805741,0.24116975,-0.2442033,0.4143812,0.20840883,0.03270979,0.22133367,0.32451278,-0.08577876,-0.056619033,0.3126857,0.3511955,0.17582458,-0.30218464,0.30483496,-0.22983776,-0.16216218,0.15601884,-0.2564628,-0.37641394,0.21520665,0.2612349,-0.3924247,-0.05905407,-0.21015769,0.35507804,-0.08279972,0.40802145,-0.37239346,0.25986308,0.33201593,0.21069843,0.19898887,0.29580858,-0.31893027,0.29427224,0.06655803,-0.21109715,-0.27433658,-0.3193505,0.13742566,-0.04598687,-0.2767509,0.090878226,-0.17628804,0.15997565,-0.17520967,0.32022274,-0.0017326912,0.05122276,0.24735585,-0.29592544
MST1R,-0.13257237,-0.06951191,0.21420243,0.062240146,-0.30999306,-0.355236,0.12063451,0.24791741,0.2756603,-0.16875494,-0.06984414,-0.25008038,0.24092524,0.23287143,-0.23623112,0.40296507,0.20209828,0.018450607,0.21639273,0.3156198,-0.082372725,-0.050270695,0.3031449,0.34022284,0.17215851,-0.29081768,0.29540816,-0.2220679,-0.15766378,0.15090743,-0.24963698,-0.36532348,0.20718418,0.253779,-0.38150883,-0.056451686,-0.20298024,0.3425725,-0.079841286,0.39830527,-0.36144292,0.251971,0.31842244,0.20342708,0.19530511,0.28573227,-0.30906615,0.28540072,0.06543229,-0.20301232,-0.2655176,-0.311283,0.13057134,-0.045092627,-0.2682639,0.08962609,-0.1701653,0.1556977,-0.1708393,0.31227592,0.0029753912,0.050985023,0.24095528,-0.28524783
PIK3C3,-0.1339437,-0.07175978,0.21524084,0.06305064,-0.3135094,-0.35641944,0.12270104,0.25044978,0.27737266,-0.16954803,-0.065551296,-0.2506557,0.24358207,0.2365219,-0.23989798,0.40553236,0.20540224,0.059482537,0.21851687,0.31713468,-0.07659426,-0.076747075,0.30423814,0.34079546,0.17647623,-0.29247898,0.2954465,-0.22191162,-0.15889578,0.15426971,-0.25002754,-0.36765105,0.20694816,0.25479916,-0.38418752,-0.054160435,-0.20427112,0.34251246,-0.08130757,0.39983875,-0.36207736,0.25256413,0.31773585,0.20394498,0.19841869,0.2868929,-0.3119927,0.28565928,0.06463828,-0.20364451,-0.26647946,-0.31339175,0.12641914,-0.050778754,-0.26698947,0.09276093,-0.17096072,0.15963875,-0.17592168,0.31485036,-0.029649949,0.054914124,0.24185766,-0.28803524
NOTCH1,-0.14448087,-0.07686443,0.23340642,0.06650492,-0.33098835,-0.38461578,0.12734206,0.26360565,0.3017549,-0.18384233,-0.076885365,-0.27637917,0.25649327,0.25014293,-0.25035402,0.428882,0.2144705,0.03463922,0.22844073,0.33199373,-0.08998948,-0.046125926,0.32563195,0.36368376,0.18203618,-0.31740582,0.3157752,-0.23884487,-0.16675419,0.16251364,-0.26656285,-0.39101595,0.22339205,0.26896882,-0.40534467,-0.061624758,-0.21757424,0.370493,-0.085639685,0.42189035,-0.38616872,0.27084896,0.35266966,0.2180374,0.20218748,0.30597955,-0.33185863,0.3033574,0.06891163,-0.21871018,-0.28564107,-0.3291555,0.14431928,-0.04575891,-0.28707826,0.0904263,-0.18496041,0.16618067,-0.1820356,0.33014652,-0.0005911384,0.053773638,0.25765562,-0.30918577
ERBB3,-0.13726752,-0.06595493,0.22358339,0.057826728,-0.31844068,-0.36634594,0.13094372,0.25966284,0.28599867,-0.17176282,-0.08299309,-0.25494617,0.25054824,0.2440737,-0.24812219,0.40998018,0.21302909,-0.066573784,0.23284075,0.32355443,-0.070059314,0.05815223,0.31780288,0.35093603,0.18649757,-0.30299115,0.30583674,-0.23334804,-0.16518462,0.15908727,-0.2643909,-0.37708426,0.21026483,0.26140803,-0.39186406,-0.06268618,-0.20952134,0.35351968,-0.088363335,0.4095614,-0.3737592,0.26066828,0.33039784,0.2082302,0.20504354,0.2946162,-0.31990796,0.2945678,0.062143628,-0.21105038,-0.2736113,-0.32399803,0.13805887,-0.059239876,-0.2770542,0.091447495,-0.17600176,0.16517648,-0.17875713,0.3206254,0.04271262,0.05523464,0.25616884,-0.2940163
SOX9,-0.1396906,-0.06776215,0.22445886,0.060160615,-0.32125667,-0.3704999,0.12876037,0.26077366,0.28864452,-0.17520198,-0.08038969,-0.25988027,0.25248274,0.2439576,-0.24773107,0.41576812,0.21235281,-0.04942082,0.23122942,0.32588553,-0.07615955,0.03974382,0.31817856,0.35577327,0.18500623,-0.3049105,0.30926466,-0.23392753,-0.16534106,0.15972051,-0.26369137,-0.38056573,0.21357274,0.2631921,-0.3953882,-0.0613354,-0.21157281,0.35742068,-0.08826504,0.41291374,-0.37815464,0.26254606,0.33461273,0.21186236,0.20586345,0.2967286,-0.32290426,0.29678172,0.064676896,-0.2133955,-0.2760684,-0.32496923,0.13906586,-0.054487705,-0.2790269,0.09269992,-0.17801121,0.16426817,-0.1786466,0.3231119,0.038437776,0.0558483,0.25614056,-0.29726306
APC,-0.1536446,-0.055201452,0.24106291,0.04622792,-0.3362368,-0.4034222,0.1383645,0.2923382,0.31820995,-0.18271494,-0.13242385,-0.27612376,0.27239048,0.26427758,-0.26851365,0.4376168,0.23316234,-0.38637203,0.27565244,0.34411922,-0.060198285,0.41982973,0.3514275,0.37180138,0.21944237,-0.32932213,0.33516854,-0.26035565,-0.18495755,0.17089492,-0.29592398,-0.39693093,0.21512166,0.27488872,-0.4196159,-0.08151206,-0.22228079,0.38294864,-0.10748956,0.4468367,-0.41018713,0.28737187,0.36839,0.2205508,0.22843078,0.31505823,-0.33934683,0.3184801,0.06600519,-0.2282015,-0.2957875,-0.35759318,0.15927742,-0.0816359,-0.29545337,0.0922031,-0.19317234,0.1717279,-0.19346158,0.34357297,0.22960618,0.06359587,0.29777586,-0.31702268
EP300,-0.1488149,-0.08573856,0.2295724,0.070089236,-0.31948897,-0.3836002,0.12120139,0.26531243,0.30076233,-0.18067473,-0.074893415,-0.2782151,0.24835654,0.2535302,-0.24863742,0.42447528,0.21743923,0.07456635,0.22629051,0.32630438,-0.09696607,-0.08575331,0.3231022,0.3463819,0.17660806,-0.3089707,0.30205533,-0.24242654,-0.16906941,0.16036844,-0.25706834,-0.37112367,0.20902899,0.27393425,-0.40208536,-0.060439363,-0.21052212,0.3718201,-0.08773619,0.41532138,-0.37460974,0.2656485,0.35276186,0.20989755,0.20193401,0.31147182,-0.31849992,0.29943123,0.07604569,-0.21014279,-0.27910557,-0.32402635,0.13496143,-0.04368428,-0.27789712,0.08603165,-0.18668322,0.15767588,-0.19002676,0.32302946,-0.031075092,0.058179103,0.25127432,-0.31467727
SMAD4,-0.14843602,-0.07878846,0.22819184,0.064200945,-0.31859827,-0.38240996,0.123993844,0.27179426,0.3024987,-0.17909318,-0.08718331,-0.27648002,0.25008583,0.25482768,-0.25025305,0.42191267,0.22025305,-0.033191927,0.23449327,0.32591972,-0.08939731,0.029594176,0.32659587,0.3458412,0.18386106,-0.30893368,0.30479476,-0.24621528,-0.17231292,0.16318792,-0.2627743,-0.3714208,0.20568176,0.27336103,-0.40253264,-0.06511339,-0.21004865,0.37037602,-0.091556944,0.4177582,-0.37674004,0.26763013,0.35308123,0.20932585,0.20698196,0.30990347,-0.32052296,0.30022386,0.07403689,-0.21076259,-0.2793547,-0.32731682,0.13717708,-0.05077744,-0.27846643,0.08688942,-0.18665618,0.1598447,-0.19310442,0.32488585,0.027283879,0.061245777,0.25722742,-0.31370363
TET2,-0.14725183,-0.08488246,0.22551998,0.069209,-0.31570792,-0.3773808,0.11909927,0.26388675,0.29678687,-0.17789952,-0.072390184,-0.2734198,0.24540243,0.25020492,-0.24562684,0.41965216,0.21538578,0.07734887,0.22403318,0.32222643,-0.09494063,-0.08941153,0.31902173,0.34112757,0.17557172,-0.30325216,0.29703516,-0.23906887,-0.16686203,0.15833214,-0.25357965,-0.3660615,0.20472425,0.27100006,-0.39786017,-0.059180684,-0.20795755,0.3658717,-0.08636837,0.41073734,-0.36903036,0.26193327,0.34607583,0.20650563,0.20129237,0.30652583,-0.31442457,0.29493374,0.07538733,-0.20662907,-0.27502176,-0.3205853,0.13119297,-0.044262275,-0.27337036,0.08579123,-0.18400222,0.15621679,-0.18918885,0.3197622,-0.035082094,0.058731593,0.24793223,-0.3107003
KRAS,-0.15367202,-0.05635739,0.2398364,0.046582155,-0.33543402,-0.40189302,0.13793035,0.29157045,0.3172913,-0.18198349,-0.13007051,-0.27495414,0.27159777,0.26382303,-0.26791894,0.43684822,0.23284088,-0.36842492,0.27460122,0.34319106,-0.05966007,0.40266538,0.34974968,0.3700216,0.21888214,-0.32818723,0.33334714,-0.25921637,-0.18418816,0.17073251,-0.29462326,-0.39592054,0.21407586,0.27442604,-0.41871217,-0.08043341,-0.22171718,0.38132232,-0.107271224,0.44544256,-0.4081356,0.28638366,0.36650807,0.21930017,0.2279562,0.3145274,-0.3382252,0.31743306,0.06562823,-0.2270223,-0.29487032,-0.35652012,0.15766676,-0.08184023,-0.29404852,0.09234639,-0.19261152,0.17168948,-0.19365868,0.34273756,0.21813321,0.06380919,0.2962131,-0.3165218
HNF1A,-0.145064,-0.07436389,0.2264155,0.062080644,-0.32307923,-0.37945682,0.12748076,0.26045442,0.29404917,-0.1780282,-0.08029705,-0.26657686,0.25592923,0.24893145,-0.25099525,0.42710873,0.21409015,-0.001874011,0.2326895,0.32910407,-0.08239477,0.001172524,0.3196454,0.35695413,0.18511374,-0.31193566,0.31287038,-0.23633386,-0.16903168,0.16143489,-0.2629342,-0.37893963,0.21472187,0.26648274,-0.4012264,-0.061339833,-0.21470088,0.3636499,-0.0926204,0.41741264,-0.38414964,0.26536345,0.3454631,0.21288542,0.203698,0.30405006,-0.32163823,0.30140752,0.07109517,-0.21427694,-0.2795002,-0.32831156,0.1412938,-0.055592634,-0.281868,0.09448317,-0.1827638,0.16221367,-0.18017977,0.3248666,0.017994303,0.05618045,0.2612092,-0.30404854
SF3B1,-0.13531782,-0.05963088,0.22222018,0.054318108,-0.317064,-0.3651929,0.12888461,0.2601757,0.28471956,-0.17006397,-0.08997108,-0.25403628,0.24938151,0.24202955,-0.24566993,0.40691352,0.21091577,-0.14974236,0.234401,0.3224532,-0.069863416,0.13094777,0.3197229,0.349616,0.18668151,-0.30144924,0.30635533,-0.23406994,-0.16490367,0.15823069,-0.26756093,-0.37531835,0.20706356,0.2586029,-0.3895544,-0.066336125,-0.20723906,0.35145903,-0.087957345,0.40890998,-0.37273437,0.2605591,0.32887143,0.2079859,0.20543703,0.2909061,-0.31894308,0.2914325,0.061196424,-0.21039969,-0.2718969,-0.3243692,0.1404512,-0.056368146,-0.27757585,0.08946028,-0.17426533,0.16346492,-0.17588793,0.31766096,0.09328313,0.054067336,0.25772226,-0.29144913
ATM,-0.15045996,-0.055328548,0.23517422,0.046576332,-0.32971865,-0.3935398,0.1368641,0.28916568,0.3111476,-0.17793423,-0.12750286,-0.26778293,0.2672626,0.25950488,-0.2648617,0.42889437,0.23033713,-0.36812735,0.27118647,0.33767384,-0.057435885,0.39879882,0.344204,0.36423707,0.21607074,-0.32046247,0.32680386,-0.25564116,-0.18170708,0.1671761,-0.2900725,-0.38956073,0.20979452,0.27108535,-0.41273636,-0.07982992,-0.21747133,0.37429762,-0.105727166,0.4384127,-0.40230235,0.28048155,0.3577569,0.2148892,0.22641866,0.30900568,-0.33274627,0.31210667,0.065573744,-0.2220888,-0.28964588,-0.35247773,0.15334156,-0.08250716,-0.2885815,0.091319546,-0.18949679,0.17048025,-0.19208133,0.3381044,0.21489164,0.06545264,0.29206422,-0.31020194
FGFR4,-0.13803513,-0.069253005,0.22268127,0.060384884,-0.3154379,-0.36446005,0.13004804,0.25542167,0.28413913,-0.1718802,-0.077913076,-0.25574654,0.24915004,0.24206284,-0.24489298,0.40946662,0.21009956,-0.029997481,0.2269747,0.32211295,-0.075341195,0.014634894,0.3146662,0.34878027,0.18114366,-0.2999851,0.30334178,-0.23195013,-0.16212843,0.15813124,-0.26267555,-0.3753351,0.21057926,0.26088086,-0.38866407,-0.06082596,-0.20872355,0.3541371,-0.087698236,0.4063695,-0.3697033,0.25868866,0.32872754,0.2079776,0.20243366,0.2932887,-0.31702054,0.2928443,0.063887164,-0.20970505,-0.2717028,-0.3196644,0.13914835,-0.054254197,-0.27618045,0.08925877,-0.17580727,0.16262475,-0.1761012,0.31665045,0.027086131,0.053358164,0.25228435,-0.29335624
MED12,-0.15456502,-0.08152354,0.23989357,0.06636488,-0.3311059,-0.39922735,0.12849863,0.27752692,0.31366068,-0.18743706,-0.091062285,-0.28832436,0.26010305,0.26427564,-0.25903642,0.43580067,0.22678247,-0.03147951,0.24206515,0.33730096,-0.09157018,0.038973853,0.33983523,0.36146358,0.19055161,-0.32406855,0.3176771,-0.2541387,-0.17715484,0.16917235,-0.27236974,-0.3851017,0.21550138,0.28087857,-0.41577488,-0.067835175,-0.21923175,0.38557172,-0.09565232,0.4305185,-0.3920051,0.27822712,0.36940002,0.21851364,0.21177463,0.3216637,-0.3323555,0.31074074,0.074980445,-0.2217589,-0.29086792,-0.33812764,0.14554083,-0.05247933,-0.28985712,0.09020405,-0.19438913,0.16524869,-0.19687644,0.33424348,0.029821213,0.061628643,0.26709452,-0.32491583
TBX3,-0.13864994,-0.07248576,0.2236939,0.064140014,-0.32095385,-0.36815393,0.12475025,0.25295055,0.28573972,-0.17647718,-0.073433116,-0.2609322,0.24849202,0.24152371,-0.24417475,0.41505536,0.2086448,0.032582194,0.22194347,0.32517406,-0.0846246,-0.05482089,0.31285053,0.35079777,0.17629166,-0.30271322,0.3050329,-0.22906813,-0.16237916,0.15639108,-0.25524732,-0.37643787,0.21473107,0.26013553,-0.3943611,-0.05924891,-0.20925227,0.35371837,-0.082855515,0.40952498,-0.37253243,0.25987956,0.33150572,0.211775,0.1991265,0.29553694,-0.31966943,0.29392213,0.067345545,-0.21079844,-0.27386415,-0.319512,0.13587135,-0.046556234,-0.2758705,0.091694005,-0.17541322,0.15914822,-0.17586946,0.3222559,-0.0025777556,0.050803952,0.24753031,-0.29627264
MTOR,-0.13830957,-0.06446665,0.2242601,0.05749339,-0.31986898,-0.3687861,0.1307269,0.26150104,0.28764963,-0.173617,-0.08665523,-0.25724208,0.25164202,0.24491917,-0.24816112,0.41209733,0.21290632,-0.093046755,0.23386419,0.3255701,-0.07176033,0.08223464,0.31911266,0.35205993,0.18752202,-0.30421728,0.30847704,-0.23450702,-0.16649616,0.160619,-0.266545,-0.37872714,0.21067625,0.26125425,-0.3939677,-0.064114876,-0.21016958,0.35555017,-0.08915236,0.4123359,-0.3758022,0.26316315,0.33238515,0.21039176,0.2069189,0.29534578,-0.32161567,0.29511917,0.063323125,-0.21255016,-0.27513468,-0.32528228,0.14047489,-0.058093064,-0.27838486,0.09187177,-0.17708114,0.1647838,-0.17910698,0.32198745,0.061004464,0.05497305,0.25790495,-0.29533228
DOT1L,-0.13926308,-0.07333647,0.22451386,0.06502266,-0.3213224,-0.37036383,0.12641439,0.2548282,0.28709722,-0.17695332,-0.07352791,-0.26199925,0.24982491,0.2434453,-0.24632251,0.41639358,0.20984796,0.0378376,0.22416162,0.3260499,-0.083627105,-0.055284135,0.31368855,0.35242718,0.17840937,-0.3050788,0.30646497,-0.2297003,-0.16411012,0.15749963,-0.25663975,-0.37892774,0.21615699,0.26172683,-0.3954008,-0.058472246,-0.21053739,0.3570072,-0.08453435,0.41086128,-0.37551916,0.26135325,0.33452097,0.21244878,0.20031281,0.29800698,-0.32084423,0.2956985,0.06772147,-0.21100737,-0.2755544,-0.3205006,0.13655771,-0.04833436,-0.27651155,0.0922611,-0.17703065,0.1608636,-0.17737979,0.3235737,-0.007661421,0.051954374,0.2494481,-0.29736716
KDM6A,-0.14141001,-0.080340885,0.23547763,0.0655843,-0.3227468,-0.3787493,0.11883512,0.2637179,0.2968991,-0.18078947,-0.07524895,-0.26748836,0.25245535,0.23994112,-0.24597923,0.4160195,0.20935197,0.04665442,0.22324264,0.32529232,-0.08863935,-0.064341635,0.3220668,0.3590653,0.17775336,-0.31056517,0.3068866,-0.23361503,-0.16420947,0.15705113,-0.26467296,-0.3899871,0.2149339,0.27250957,-0.3968212,-0.062176928,-0.20889364,0.36325657,-0.085889496,0.4141515,-0.37905794,0.2651811,0.3494046,0.21037108,0.19930103,0.30091465,-0.323106,0.30225307,0.07043659,-0.21067566,-0.28271466,-0.32920402,0.13452372,-0.04047086,-0.28793845,0.08776574,-0.1878654,0.1658136,-0.1780617,0.32450473,-0.013103034,0.05300895,0.25690287,-0.30453175
FLT3,-0.13778938,-0.065300725,0.22192264,0.057845365,-0.32136008,-0.3691262,0.12715763,0.2601469,0.2871368,-0.17439261,-0.08299991,-0.2583558,0.25161698,0.24324748,-0.24600527,0.41406676,0.21171702,-0.070422396,0.23202136,0.325916,-0.0740788,0.059798747,0.31666392,0.35196102,0.18550538,-0.30339393,0.30865836,-0.23221336,-0.16539991,0.15893367,-0.26216906,-0.37838766,0.21067917,0.26031208,-0.39539558,-0.060830176,-0.20994172,0.35299218,-0.087514184,0.41296458,-0.37617624,0.26186594,0.3314698,0.21011947,0.20525223,0.29472658,-0.32200086,0.29478484,0.063903995,-0.2117575,-0.27452007,-0.32365096,0.13677597,-0.054813165,-0.27717945,0.09305382,-0.17567715,0.16328934,-0.17834592,0.32347888,0.049206316,0.055361956,0.25457495,-0.29526773
DIS3,-0.1372606,-0.0723654,0.22116628,0.06404668,-0.3152092,-0.3637454,0.123833135,0.25117436,0.28252652,-0.17379974,-0.07203794,-0.2577952,0.2456224,0.23810834,-0.24180031,0.41146144,0.20571493,0.025804467,0.219464,0.32139584,-0.08660562,-0.052621793,0.3102606,0.3478396,0.17343646,-0.2985052,0.3017323,-0.22872043,-0.16120842,0.1546766,-0.2548668,-0.37320757,0.21331623,0.25922263,-0.3889357,-0.059296504,-0.20730612,0.35260466,-0.0824901,0.40479064,-0.36871085,0.25729364,0.3289253,0.20910302,0.19723019,0.29285553,-0.3157972,0.29217488,0.06751089,-0.20814535,-0.27195004,-0.3165692,0.13637127,-0.04520057,-0.27440798,0.08972643,-0.17470036,0.158018,-0.17288506,0.31724483,0.0028442442,0.051141832,0.24571413,-0.2923599
AXL,-0.14010054,-0.07319048,0.22567236,0.06325314,-0.32180542,-0.37043124,0.12839086,0.2563929,0.2878484,-0.17657264,-0.073604904,-0.26094663,0.2512021,0.24374177,-0.24714,0.4169221,0.21114138,0.035228666,0.2257947,0.3267381,-0.08012463,-0.04531306,0.31556,0.3536,0.18052272,-0.3054223,0.30668986,-0.23152669,-0.16332869,0.15937266,-0.26064315,-0.37967753,0.21563822,0.2632455,-0.395602,-0.058391213,-0.21117368,0.35817066,-0.085911825,0.41154847,-0.3748749,0.2626274,0.33415443,0.21197808,0.20207396,0.29800576,-0.3220692,0.297008,0.06568593,-0.21299894,-0.27645373,-0.3221064,0.13787353,-0.05201987,-0.27848005,0.09257358,-0.1778721,0.16276363,-0.17770907,0.32322738,-0.009650165,0.053387076,0.25148708,-0.2981999
CDH1,-0.13585317,-0.06842146,0.21939136,0.059695724,-0.31258446,-0.35995734,0.12974119,0.25505418,0.28080228,-0.1689165,-0.077430874,-0.25080526,0.24685612,0.24007776,-0.24406025,0.40405735,0.20887567,-0.035802722,0.22727829,0.31848907,-0.07174632,0.021747407,0.31209546,0.34438372,0.18127587,-0.29633003,0.2993533,-0.229916,-0.16146484,0.15643457,-0.26078835,-0.37159753,0.20702899,0.25854623,-0.3851884,-0.06033941,-0.20640036,0.34928071,-0.087658405,0.40223527,-0.3662727,0.2558825,0.3235346,0.20444864,0.2017872,0.2903036,-0.31322518,0.2892478,0.06239653,-0.2065437,-0.2687484,-0.31789124,0.13593161,-0.057154633,-0.27273437,0.0895653,-0.17385578,0.16298957,-0.1762824,0.31393296,0.02585833,0.054812163,0.25061747,-0.2890521
PBRM1,-0.14290385,-0.07718654,0.22144438,0.06527434,-0.3165003,-0.373209,0.12500553,0.25596458,0.28854176,-0.17471227,-0.07268377,-0.26260304,0.2513591,0.24512109,-0.24785975,0.4214296,0.21030998,0.05171955,0.22590175,0.3230337,-0.084597215,-0.05890702,0.31280577,0.34794813,0.17896283,-0.30500633,0.30463523,-0.23071107,-0.16536514,0.15844595,-0.25408462,-0.3716603,0.21169965,0.26270524,-0.39465183,-0.05696842,-0.2111879,0.35897714,-0.08894312,0.41000417,-0.37636602,0.2587541,0.3376071,0.20892677,0.19953996,0.300428,-0.31408972,0.2951913,0.071334094,-0.20830834,-0.27362958,-0.3205741,0.13561139,-0.05319833,-0.2740286,0.091700524,-0.17775726,0.15778348,-0.18021536,0.32012588,-0.015398298,0.055031724,0.2533483,-0.2990945
PAK5,-0.13658471,-0.07160098,0.21925694,0.06304257,-0.31506014,-0.36202574,0.123197295,0.25071335,0.2814931,-0.1726419,-0.0715241,-0.2567,0.24501824,0.23737463,-0.23999248,0.40934616,0.205532,0.027079806,0.21863712,0.32068005,-0.084881276,-0.054516833,0.30857724,0.345744,0.17327973,-0.29708236,0.30045775,-0.22662061,-0.15986927,0.154073,-0.2525215,-0.3710706,0.21095662,0.2585126,-0.38860506,-0.057652503,-0.2054144,0.349464,-0.08188481,0.40394658,-0.36667305,0.25578678,0.3263955,0.20778868,0.19662058,0.29099965,-0.31464913,0.28961983,0.06724024,-0.2072035,-0.26936418,-0.31478658,0.13406286,-0.044461057,-0.2726236,0.08963397,-0.1728467,0.15713017,-0.1729312,0.31756124,0.00054996274,0.051704735,0.2440139,-0.29190105
FGFR2,-0.13024649,-0.06697283,0.20933829,0.059784397,-0.30681688,-0.34991446,0.119851135,0.2473971,0.2735739,-0.16648164,-0.068910465,-0.24798536,0.23997167,0.23180127,-0.23430797,0.39940536,0.20038201,0.0077208504,0.21561243,0.3121653,-0.077990755,-0.038168818,0.29965556,0.33509246,0.1691348,-0.28627878,0.2913491,-0.21957266,-0.15637574,0.14971028,-0.24512929,-0.36137527,0.20218325,0.25154144,-0.37906548,-0.054085013,-0.1990643,0.33713663,-0.07860236,0.39667782,-0.35703713,0.2482668,0.31338495,0.2000725,0.19440052,0.2817679,-0.3068372,0.2804698,0.064276524,-0.19943981,-0.26143497,-0.3072275,0.12613913,-0.0464094,-0.26254517,0.087988116,-0.1658093,0.15410209,-0.17134228,0.31017196,0.004570673,0.05105745,0.23874456,-0.28208798
PLK2,-0.14274058,-0.07803974,0.21642625,0.063915715,-0.31161687,-0.3682912,0.12089647,0.25253826,0.28436527,-0.17309391,-0.0706044,-0.25873244,0.24847303,0.24116093,-0.24260369,0.41865945,0.20741832,0.06102755,0.22241801,0.31969148,-0.08406893,-0.06959601,0.3080601,0.34201607,0.17761326,-0.2977853,0.30006993,-0.22852391,-0.16203499,0.15635385,-0.25017825,-0.36411366,0.20648658,0.25935194,-0.39162928,-0.055557944,-0.20865864,0.35239694,-0.08892971,0.40706766,-0.36933213,0.25457665,0.3310144,0.20451146,0.19873874,0.29648292,-0.30794826,0.29231036,0.07356924,-0.20467567,-0.27008563,-0.3173043,0.1316591,-0.05311555,-0.2698901,0.09243293,-0.17658034,0.15467928,-0.17786162,0.3160889,-0.02068181,0.05550134,0.24982424,-0.29595354
EPHB1,-0.14233911,-0.07560128,0.2319439,0.066535324,-0.33057296,-0.37971014,0.12784198,0.25911546,0.29498065,-0.18119715,-0.07431015,-0.2708641,0.2545006,0.24805611,-0.25006396,0.42544365,0.21326295,0.053476267,0.22934045,0.3294353,-0.08820067,-0.068590924,0.32321382,0.36036032,0.18001343,-0.3165831,0.31091446,-0.2348124,-0.16483825,0.15813206,-0.26269975,-0.38537496,0.21928686,0.26724738,-0.4032616,-0.061745714,-0.21368574,0.3668505,-0.085890114,0.41633946,-0.3839126,0.26849207,0.34708667,0.21731345,0.19936664,0.30138195,-0.32656524,0.30034587,0.06838101,-0.21825269,-0.28217384,-0.32806823,0.1438947,-0.044941425,-0.2851007,0.09115473,-0.18031032,0.16348663,-0.17873365,0.3264425,-0.009897573,0.05157102,0.25525194,-0.30694723
TSC2,-0.14141989,-0.07291342,0.23169589,0.06587307,-0.3315026,-0.3797325,0.12904365,0.25621974,0.29178476,-0.18044378,-0.07815177,-0.2684588,0.25380906,0.24826257,-0.25043353,0.42408496,0.2137735,0.04128938,0.231554,0.33020627,-0.086960346,-0.06149576,0.32329732,0.35895985,0.17945632,-0.31807745,0.31128705,-0.23516223,-0.16488232,0.15610468,-0.26234588,-0.3831611,0.2193148,0.26666316,-0.4040355,-0.06282221,-0.21153896,0.36739933,-0.08660881,0.41574246,-0.38459003,0.2687172,0.34597543,0.21932143,0.19812095,0.30032828,-0.32488054,0.3012102,0.06834971,-0.21968234,-0.28151017,-0.3289212,0.14548613,-0.044098005,-0.28542542,0.09119791,-0.1777634,0.16044866,-0.17693788,0.32664546,-0.0019778572,0.049120456,0.25525376,-0.30764627
PIK3CG,-0.14017837,-0.07854978,0.21471253,0.06518602,-0.307779,-0.3622993,0.12457461,0.25315422,0.2818861,-0.16935903,-0.06697871,-0.25465387,0.24685362,0.2404958,-0.24394076,0.41220248,0.20716986,0.077583686,0.22233903,0.31549636,-0.080587566,-0.08195943,0.30527818,0.3381886,0.17644954,-0.29513583,0.29482365,-0.22529861,-0.16134204,0.15534711,-0.24896288,-0.36267814,0.20472226,0.25894502,-0.38581026,-0.053727943,-0.20697421,0.35126317,-0.087994695,0.4007694,-0.36703074,0.25240898,0.32667053,0.20164704,0.19743548,0.29431766,-0.30548126,0.28840968,0.069816,-0.20173654,-0.26677245,-0.31313992,0.1303085,-0.056452036,-0.26632196,0.09020508,-0.17378896,0.15608183,-0.17964646,0.3129196,-0.036309894,0.0563194,0.24768092,-0.2920405
FOXA1,-0.13458689,-0.06763726,0.2279374,0.06053269,-0.31797728,-0.37412328,0.10154366,0.25712866,0.2901504,-0.17710638,-0.08513355,-0.2639693,0.24108475,0.22607623,-0.23328179,0.41055915,0.19882543,-0.103415474,0.21625851,0.32205588,-0.106870495,0.029772896,0.3181709,0.35439664,0.16419773,-0.30333197,0.30549553,-0.23045963,-0.16242604,0.14477514,-0.25750914,-0.38116932,0.20979506,0.2638278,-0.39058727,-0.06902997,-0.19922844,0.35414672,-0.07406812,0.41092443,-0.37467104,0.26168293,0.34644693,0.2084769,0.19004637,0.29086176,-0.31713548,0.29326418,0.07147973,-0.20464233,-0.27837974,-0.32457143,0.13555285,-0.015496248,-0.28557113,0.07849747,-0.17933118,0.15246384,-0.16298194,0.3178917,0.09618605,0.04325728,0.25098312,-0.29508823
RASA1,-0.1354029,-0.07213765,0.21672969,0.063048854,-0.31265518,-0.3584687,0.12325406,0.2500312,0.2791402,-0.17036408,-0.068992466,-0.25329086,0.24349625,0.23657729,-0.23918015,0.4061833,0.20549592,0.03976933,0.2186988,0.3178733,-0.08068502,-0.06253419,0.30578402,0.3420057,0.17440891,-0.29384738,0.29692316,-0.22439703,-0.15862934,0.15312403,-0.25118262,-0.36883777,0.20948091,0.25617003,-0.38511553,-0.056119137,-0.20534737,0.34613946,-0.08167165,0.40077683,-0.36362052,0.2535173,0.32152238,0.20489222,0.19729888,0.28899866,-0.3120408,0.28816366,0.06604132,-0.20387566,-0.2671278,-0.3130633,0.13064943,-0.0480519,-0.2693931,0.090225175,-0.17196685,0.15788479,-0.17382334,0.3156152,-0.012033798,0.05277264,0.24279603,-0.28917107
CIC,-0.15051791,-0.084743574,0.23262686,0.069942825,-0.32284147,-0.38829917,0.122279555,0.26793337,0.30427444,-0.1828797,-0.078304276,-0.28200078,0.25145894,0.2560599,-0.2507351,0.42809033,0.21930608,0.045324273,0.2296389,0.32914916,-0.097008586,-0.05419071,0.32831368,0.3518189,0.17954516,-0.31304982,0.30648333,-0.24552713,-0.17051256,0.16234577,-0.2605572,-0.3749834,0.21147913,0.27529705,-0.40566003,-0.06309567,-0.21327806,0.3759638,-0.08923001,0.41906035,-0.37999618,0.26850635,0.35758004,0.21264586,0.20427321,0.31401116,-0.32214978,0.30197138,0.07642798,-0.21370928,-0.28212205,-0.3284062,0.13809174,-0.044174306,-0.2816617,0.086737156,-0.18906367,0.15914024,-0.19034448,0.32529265,-0.012099899,0.059190955,0.25515842,-0.31764942
NTRK3,-0.14137383,-0.06832004,0.23013192,0.06026566,-0.32877296,-0.3785031,0.12964122,0.26270142,0.29396084,-0.1793775,-0.084205985,-0.2653963,0.25611258,0.24843504,-0.25259992,0.42229313,0.21536103,-0.040101144,0.2346181,0.33183765,-0.077192426,0.0353237,0.32429713,0.3600688,0.18745027,-0.31313214,0.3151524,-0.23695724,-0.16853774,0.1623997,-0.26669168,-0.3865081,0.21855329,0.26528108,-0.40339974,-0.06323966,-0.21448681,0.36209685,-0.08822557,0.42026055,-0.3844511,0.2679499,0.3416354,0.21599436,0.2060701,0.30281237,-0.3291572,0.3022521,0.064719155,-0.21701783,-0.28207135,-0.3297987,0.14062649,-0.05551291,-0.28308398,0.09507522,-0.17937286,0.1656104,-0.18085866,0.3304689,0.03338793,0.054347303,0.2598437,-0.3022849
STK11,-0.13634008,-0.05978605,0.22322586,0.053741958,-0.31957656,-0.36774606,0.12878914,0.26214916,0.2856503,-0.17116167,-0.089350685,-0.25351956,0.25058103,0.24301964,-0.24728665,0.40954262,0.21178398,-0.14048904,0.23615438,0.32449046,-0.06703326,0.12782918,0.32071072,0.35109365,0.18904433,-0.3024065,0.307853,-0.23493782,-0.16623726,0.16014273,-0.26892453,-0.377105,0.206961,0.25978985,-0.3923409,-0.06543972,-0.2086243,0.3529064,-0.0888628,0.41133422,-0.37422246,0.26195353,0.32908067,0.20858207,0.20775998,0.29266006,-0.32047907,0.29277083,0.060633175,-0.21213397,-0.27348176,-0.32648742,0.13936424,-0.05965006,-0.27850842,0.09067458,-0.17493762,0.1646025,-0.17652771,0.31920928,0.08414894,0.054740578,0.26007104,-0.2924436
EPHA3,-0.1382063,-0.07357097,0.2237519,0.06462349,-0.32042515,-0.36782646,0.1253088,0.2526635,0.285298,-0.17603874,-0.07095013,-0.26010573,0.24868602,0.24140942,-0.2444723,0.41487634,0.20838791,0.048966687,0.22169884,0.32457474,-0.08333923,-0.06839977,0.31239867,0.351044,0.17695062,-0.30233443,0.3043456,-0.22860786,-0.16189504,0.15673575,-0.25600937,-0.37652802,0.21467414,0.2608267,-0.39279538,-0.057711154,-0.2100335,0.35416752,-0.08310455,0.40877217,-0.37193772,0.25982618,0.33095634,0.21123499,0.19946386,0.29558617,-0.31928968,0.29408443,0.0664448,-0.21089545,-0.27375817,-0.3189708,0.13555555,-0.047613278,-0.27591452,0.09215022,-0.1758208,0.16017136,-0.17582159,0.32090256,-0.014363528,0.050987862,0.2473938,-0.29593214
RB1,-0.14223914,-0.07128884,0.22842461,0.06154324,-0.32750988,-0.37920082,0.12542135,0.26632628,0.29951948,-0.17969432,-0.08201582,-0.27155375,0.25492623,0.24749857,-0.24809194,0.42302036,0.21408424,-0.03271821,0.23130172,0.32752007,-0.08346465,0.023926662,0.3242395,0.3581321,0.1846763,-0.31267187,0.31270295,-0.23808888,-0.16657835,0.16181676,-0.26563716,-0.386558,0.2173131,0.26600578,-0.40221566,-0.06251279,-0.2136912,0.36323425,-0.086056754,0.41959327,-0.38218617,0.26739952,0.34724647,0.21361777,0.20366867,0.3004337,-0.3296442,0.29931003,0.067098476,-0.21503437,-0.2817734,-0.32809424,0.14027256,-0.049206324,-0.28291565,0.09021646,-0.18206471,0.16610283,-0.1831451,0.32869923,0.03280188,0.057157733,0.25814396,-0.3049469
PTCH1,-0.14062175,-0.06624517,0.2281589,0.057985637,-0.32334447,-0.3748183,0.13274848,0.26361746,0.29213148,-0.17689556,-0.087675124,-0.26219532,0.25539255,0.24805674,-0.2512076,0.41740435,0.21496888,-0.08785055,0.23599851,0.3301509,-0.07440658,0.081957385,0.32325506,0.35891032,0.18873632,-0.30958438,0.31382626,-0.23815005,-0.16850913,0.16268104,-0.2692713,-0.3840952,0.21514681,0.2650935,-0.39916217,-0.06470528,-0.21376568,0.3618368,-0.09105643,0.41688204,-0.38190776,0.26689777,0.33956668,0.21409544,0.20833501,0.3005488,-0.32650992,0.30027246,0.06436871,-0.21694896,-0.27956635,-0.32871622,0.14458548,-0.058076262,-0.28326246,0.092852145,-0.1803651,0.16672148,-0.17986175,0.32578918,0.06060864,0.055621136,0.2608132,-0.2996995
RICTOR,-0.13862541,-0.07425098,0.22163166,0.06476957,-0.31743237,-0.36455244,0.1256351,0.25248456,0.28317788,-0.17501457,-0.070286356,-0.2573021,0.24700168,0.23982245,-0.24364439,0.4126614,0.2073973,0.049137928,0.22057953,0.3227067,-0.083591565,-0.06777099,0.3100229,0.3483944,0.17612141,-0.29944676,0.3021912,-0.22837883,-0.16197999,0.15661123,-0.25502443,-0.37427387,0.2129865,0.25979587,-0.3908687,-0.058376133,-0.20864944,0.35238254,-0.08380272,0.40584737,-0.3697733,0.2584701,0.32853758,0.20937563,0.19904998,0.29403132,-0.3167734,0.29252368,0.066764526,-0.209362,-0.2729067,-0.31787023,0.1351772,-0.049106546,-0.2740156,0.09227209,-0.17589813,0.1598899,-0.17579155,0.31903487,-0.0141287325,0.052662443,0.2466641,-0.2935149
IKZF1,-0.13785592,-0.07264965,0.22029795,0.06318273,-0.3175267,-0.364457,0.12578045,0.25374776,0.28362185,-0.17420527,-0.07245232,-0.2578784,0.24822861,0.24101436,-0.24352437,0.41164792,0.20867921,0.030693006,0.22296709,0.32264322,-0.079949364,-0.04589875,0.31100607,0.34717053,0.17753655,-0.29979497,0.3021689,-0.22793043,-0.16153038,0.15701377,-0.25577727,-0.37435472,0.21132103,0.25960827,-0.39214504,-0.057930704,-0.2077676,0.35118055,-0.085152544,0.4068637,-0.36946172,0.25784302,0.3275532,0.20811164,0.1997143,0.29367238,-0.317512,0.2920152,0.06655976,-0.20865993,-0.27204752,-0.31735152,0.13447863,-0.05056737,-0.2730359,0.09194356,-0.17437176,0.16055727,-0.1762135,0.319946,-0.005726842,0.053303372,0.24710144,-0.29375124
PTPRS,-0.14921124,-0.087312646,0.23002458,0.071047686,-0.31956676,-0.38345575,0.12229602,0.2654642,0.30126402,-0.18056938,-0.07354658,-0.2787092,0.24917229,0.25418016,-0.2493322,0.42429882,0.21815631,0.08816823,0.22650479,0.32595325,-0.09639998,-0.095738634,0.32368577,0.34635234,0.17735317,-0.30937827,0.30140424,-0.24234207,-0.1685557,0.16086772,-0.25691146,-0.37165982,0.20911247,0.27438244,-0.4019664,-0.06011355,-0.21100485,0.37250718,-0.08835143,0.41436583,-0.37494203,0.26570836,0.3528592,0.20958626,0.20180091,0.3116208,-0.31833464,0.2993209,0.07596921,-0.2103279,-0.2787611,-0.32345095,0.13475418,-0.044949293,-0.27749738,0.08654152,-0.18685058,0.15846178,-0.19106467,0.32282853,-0.04008338,0.058906846,0.25094783,-0.31491897
KDR,-0.1392108,-0.070558146,0.22643939,0.062032893,-0.32398498,-0.3724841,0.12767473,0.2574893,0.2894458,-0.1776762,-0.077833086,-0.26355946,0.2524025,0.24503171,-0.24779391,0.4179306,0.21140453,0.0033077085,0.228047,0.3281891,-0.08024007,-0.014943501,0.31769332,0.35501027,0.18158442,-0.30765426,0.30969936,-0.23202354,-0.16503985,0.15950161,-0.26067573,-0.38088915,0.21656784,0.2624836,-0.39783388,-0.059669502,-0.21180132,0.35876992,-0.08531408,0.41416943,-0.37845445,0.26423842,0.33664313,0.21380433,0.20253906,0.29888767,-0.32431582,0.2978056,0.065955885,-0.2138654,-0.27718967,-0.32315126,0.13839749,-0.05110998,-0.27891827,0.09322336,-0.17789166,0.16212843,-0.1777614,0.3258599,0.009999489,0.05241649,0.25318685,-0.29866558
CDK12,-0.13624728,-0.07176091,0.22147208,0.06359557,-0.318403,-0.3633895,0.12782219,0.25198656,0.28124815,-0.17046538,-0.07050405,-0.2549692,0.24634662,0.24057604,-0.24429266,0.40944988,0.2092237,0.057945743,0.22540677,0.3188218,-0.07717205,-0.07384059,0.31211734,0.3447815,0.17728439,-0.3024305,0.2978684,-0.2277254,-0.15942758,0.1529431,-0.25635302,-0.37073922,0.20941642,0.2602593,-0.38964063,-0.058358897,-0.20501953,0.3532595,-0.085161164,0.4023462,-0.36932015,0.25762007,0.32796788,0.20840581,0.1964228,0.2899371,-0.31349635,0.29083788,0.06489397,-0.209306,-0.2705214,-0.31856444,0.13612981,-0.050351787,-0.27405775,0.08935414,-0.17213492,0.15934947,-0.17570974,0.31605396,-0.024828214,0.052180655,0.24848267,-0.29539487
FANCA,-0.14042091,-0.070478804,0.2279203,0.061643757,-0.32485488,-0.3750046,0.13046706,0.25961536,0.29160714,-0.17851037,-0.08057693,-0.2639763,0.254373,0.24700576,-0.24991113,0.41939625,0.21353889,-0.013798733,0.23017359,0.3306719,-0.07953562,0.0041402914,0.32014585,0.35764992,0.18327992,-0.30973274,0.3126738,-0.23496905,-0.16680759,0.16074248,-0.26425654,-0.38362557,0.21803711,0.26486596,-0.39939308,-0.060878202,-0.21298835,0.3618349,-0.08689808,0.41653064,-0.38099968,0.26629618,0.3397897,0.21475089,0.20404126,0.3005524,-0.32648087,0.3001086,0.06538317,-0.21559611,-0.279936,-0.32529634,0.1410994,-0.052277714,-0.2814505,0.09283471,-0.17908804,0.16435158,-0.17950091,0.32704285,0.01994659,0.05356943,0.2562296,-0.3006985
CUL3,-0.13486493,-0.07028493,0.21758066,0.06361075,-0.3153581,-0.35904092,0.12018667,0.24993935,0.279257,-0.17112993,-0.06973024,-0.25544533,0.24318285,0.23587129,-0.23888075,0.40718058,0.2040965,0.025618061,0.21887532,0.31700677,-0.08314266,-0.05336291,0.3071809,0.34326676,0.1748135,-0.29478708,0.29701802,-0.22340356,-0.15920618,0.15242405,-0.2487511,-0.36891478,0.20907284,0.2546837,-0.38598165,-0.057828203,-0.20446189,0.34429002,-0.079736866,0.4009842,-0.36473784,0.25314504,0.3218496,0.2065018,0.19614586,0.28789705,-0.3121403,0.28628558,0.066136375,-0.20457804,-0.26668954,-0.31387898,0.1293137,-0.045302138,-0.26840454,0.09128115,-0.17120437,0.15626645,-0.1730568,0.31587377,-0.0010219277,0.05192826,0.24223164,-0.2891531
SMARCA4,-0.15080978,-0.07917793,0.23275688,0.06482371,-0.3240135,-0.38992888,0.1232255,0.274066,0.3074086,-0.18222764,-0.08829774,-0.28120175,0.25381657,0.25789496,-0.25322682,0.42908412,0.22200508,-0.0361062,0.23723882,0.33115268,-0.09121981,0.033841945,0.33229452,0.35282025,0.18616368,-0.3148378,0.30999938,-0.2492159,-0.17431661,0.16479781,-0.26639536,-0.37731236,0.20949844,0.27672794,-0.4085836,-0.06564502,-0.21371746,0.37636384,-0.09231988,0.42409927,-0.38280207,0.27207145,0.35973442,0.21292552,0.20871693,0.314354,-0.32569036,0.3042328,0.07432576,-0.21525897,-0.2841851,-0.33210963,0.13999644,-0.049517013,-0.28307447,0.08758697,-0.18919417,0.16153793,-0.19342962,0.3286001,0.03176865,0.060475986,0.2611952,-0.31867445
IKBKE,-0.13288382,-0.055858508,0.21462189,0.056908324,-0.31473342,-0.3601027,0.11415008,0.25455743,0.2769218,-0.17090857,-0.086153865,-0.25316814,0.24116139,0.23163837,-0.23469585,0.40559855,0.20203061,-0.19151577,0.22250529,0.31927884,-0.09003062,0.12922092,0.31220776,0.3504865,0.17001918,-0.29245758,0.30360675,-0.228468,-0.16072358,0.14764908,-0.25251615,-0.36880884,0.20511234,0.25317752,-0.3887405,-0.07008646,-0.20048264,0.3423534,-0.079032466,0.4041301,-0.3718694,0.2509921,0.32216573,0.20625278,0.19891982,0.2853017,-0.31430295,0.28336072,0.06942883,-0.20467776,-0.2673288,-0.31917042,0.13568848,-0.03277041,-0.27212936,0.08579442,-0.1685138,0.15267031,-0.16425532,0.31308186,0.14352542,0.05207538,0.2485953,-0.28431964
MAP2K4,-0.13986146,-0.075361595,0.2124694,0.0618947,-0.30607662,-0.3635581,0.11753494,0.24966297,0.28027627,-0.16943868,-0.06980719,-0.25508597,0.24536523,0.23733532,-0.23916814,0.41579118,0.20449434,0.040628843,0.2201367,0.31567857,-0.083418444,-0.056858774,0.3052583,0.33836192,0.17410913,-0.29254842,0.29657918,-0.22729698,-0.16010712,0.1534169,-0.24822542,-0.3598978,0.20221728,0.2580943,-0.3864875,-0.054824017,-0.20529032,0.34967908,-0.087279394,0.4041528,-0.36580563,0.2507014,0.32765305,0.20140593,0.19566746,0.2926922,-0.30300215,0.28938356,0.072585195,-0.20094648,-0.26698962,-0.31395417,0.12979703,-0.050382987,-0.26635304,0.08857732,-0.17293024,0.15116926,-0.17494601,0.31141412,-0.009816195,0.053433232,0.24893023,-0.29237425
IRS1,-0.14109592,-0.076331295,0.22022182,0.063536584,-0.3144667,-0.36654592,0.12690958,0.2540678,0.28541878,-0.17215315,-0.07069904,-0.2571994,0.24912691,0.24329099,-0.24582864,0.41530317,0.20968871,0.05142092,0.22512712,0.32109788,-0.079455644,-0.05730299,0.310646,0.34752244,0.17941692,-0.30096012,0.30146635,-0.2298683,-0.16321649,0.15766618,-0.25690308,-0.37141293,0.21006781,0.26202255,-0.39021623,-0.05736184,-0.20972449,0.3547319,-0.08957947,0.4055718,-0.37132567,0.25735477,0.33174324,0.20618668,0.1999101,0.29644388,-0.31338447,0.29312432,0.068809286,-0.20747226,-0.2715124,-0.31921592,0.13562396,-0.055717215,-0.27379596,0.09164468,-0.17819822,0.16106047,-0.17751141,0.31622255,-0.01828984,0.05571571,0.25202054,-0.2958716
ATRX,-0.13878925,-0.07263745,0.22698909,0.065159544,-0.3241021,-0.37122172,0.12914853,0.25413185,0.28654137,-0.17569442,-0.073905006,-0.2612626,0.24979486,0.24488087,-0.2475887,0.41672087,0.21182701,0.051618684,0.22769459,0.3245435,-0.08171135,-0.06984731,0.31661233,0.3520045,0.17835237,-0.3095448,0.30453423,-0.23131207,-0.16241345,0.15476778,-0.25967857,-0.37790662,0.21514595,0.26347083,-0.39646104,-0.06028674,-0.20935002,0.36054498,-0.08539272,0.40942267,-0.3768766,0.26277423,0.336385,0.21345797,0.19810472,0.29587796,-0.31948018,0.29620314,0.06656103,-0.21379891,-0.2758411,-0.32396778,0.14046116,-0.04845386,-0.27973118,0.09009233,-0.17589204,0.16083285,-0.17659204,0.32140604,-0.015861794,0.0506336,0.25144428,-0.3011807
EGFR,-0.13647105,-0.06383586,0.22033407,0.056672726,-0.3153564,-0.36289504,0.12814105,0.25806743,0.28286844,-0.17069077,-0.084040254,-0.25254843,0.2480248,0.2401244,-0.24396145,0.4066713,0.20921105,-0.093338,0.2303182,0.32107002,-0.07238456,0.07683484,0.31487158,0.34719014,0.18413009,-0.2979048,0.3035864,-0.2318545,-0.16364266,0.15774705,-0.26312917,-0.37315106,0.20680834,0.25812435,-0.38860095,-0.063129604,-0.20722336,0.35008454,-0.087733135,0.4067468,-0.3696086,0.25860468,0.32607824,0.20688197,0.20452254,0.2903985,-0.3161153,0.29058492,0.062922806,-0.20908022,-0.27100176,-0.32086492,0.13838774,-0.056573015,-0.27500266,0.09022173,-0.17443003,0.16236907,-0.17556854,0.316578,0.061926145,0.054427072,0.25414336,-0.29024506
AKT1,-0.1327571,-0.06376529,0.21455795,0.059367955,-0.31214184,-0.35940605,0.115498014,0.2466025,0.27707243,-0.17009485,-0.075146206,-0.25545853,0.2393848,0.23167947,-0.23424861,0.407708,0.19955324,-0.048353724,0.21595597,0.31791297,-0.09239382,-0.0066884235,0.3071526,0.34447527,0.16504675,-0.29372802,0.30009604,-0.22561458,-0.15860105,0.1479128,-0.24868992,-0.36642233,0.20777369,0.25388902,-0.38414466,-0.06130196,-0.20081607,0.34515554,-0.07596233,0.40153044,-0.36480787,0.25145224,0.32540625,0.20649719,0.19145197,0.28604752,-0.31084707,0.28572306,0.06690661,-0.20380726,-0.26740146,-0.31293118,0.1351372,-0.031942777,-0.27122998,0.08360581,-0.16778895,0.15011874,-0.16510496,0.31163168,0.05406089,0.04622054,0.2418679,-0.28714418
PTPRT,-0.14439787,-0.08241339,0.24221893,0.06777295,-0.33299267,-0.389498,0.12157524,0.26654595,0.30422723,-0.18668209,-0.07644187,-0.27486295,0.2582612,0.24654253,-0.25218934,0.42566824,0.2135112,0.07155818,0.22800612,0.3327052,-0.08893445,-0.08058353,0.32908705,0.36786023,0.18237828,-0.32105863,0.31486952,-0.23702694,-0.16769807,0.16098596,-0.26815075,-0.39848348,0.22146446,0.2761417,-0.40656072,-0.062611416,-0.21448854,0.3710525,-0.08684169,0.4228256,-0.38870704,0.27211672,0.35914314,0.21639025,0.20214956,0.30827746,-0.3311833,0.30864203,0.07052167,-0.21750987,-0.28970274,-0.3364289,0.1371898,-0.041667994,-0.29404134,0.091758266,-0.19194746,0.16938,-0.18165909,0.3322126,-0.02797442,0.052821316,0.26108932,-0.31219858
AR,-0.13444734,-0.07140299,0.21505699,0.06266798,-0.31087586,-0.35595602,0.12323882,0.25058338,0.27725914,-0.16825022,-0.06695014,-0.25041485,0.2426305,0.23578395,-0.23938665,0.40464824,0.20528176,0.04424918,0.21825802,0.3159896,-0.078683764,-0.065410435,0.3041808,0.34049487,0.17407441,-0.29226303,0.29497963,-0.22321385,-0.1581448,0.15295072,-0.25113818,-0.3672945,0.20681009,0.25651062,-0.38289952,-0.055274837,-0.20356779,0.34442803,-0.081416644,0.39820677,-0.36221606,0.2516848,0.31905884,0.2027421,0.19715165,0.28738195,-0.31078148,0.2860059,0.06441555,-0.20325582,-0.26544905,-0.31211844,0.12916353,-0.049195796,-0.267364,0.08971806,-0.17097521,0.1583273,-0.17394763,0.31298873,-0.018079713,0.053921547,0.24239072,-0.28760564
GNAS,-0.12819868,-0.066063166,0.206694,0.060493294,-0.30465138,-0.344689,0.118910864,0.2461225,0.2699378,-0.16159013,-0.065312885,-0.24447247,0.23590046,0.22894064,-0.23222631,0.39519453,0.1998159,0.022219412,0.21418501,0.30744547,-0.075235784,-0.05145707,0.29805365,0.33022165,0.17085083,-0.28301808,0.28699505,-0.21682823,-0.15414315,0.14831296,-0.24322876,-0.35749847,0.2005072,0.24876942,-0.37406388,-0.054276425,-0.19610728,0.33077338,-0.077587284,0.38995665,-0.35236263,0.24349746,0.30737317,0.19644216,0.19250184,0.27719343,-0.303674,0.27823204,0.06250604,-0.19511786,-0.25668728,-0.30411777,0.12201256,-0.04558938,-0.25836742,0.08819661,-0.1633919,0.15381235,-0.17153029,0.30750698,-0.0076079206,0.053912744,0.23570597,-0.27898207
TGFBR2,-0.14587533,-0.072214365,0.22366698,0.060292028,-0.3193215,-0.37869048,0.12618385,0.26161397,0.29360148,-0.1773497,-0.08570771,-0.2656756,0.2558276,0.24833639,-0.25021246,0.42612305,0.21400464,-0.044570833,0.23425458,0.32781258,-0.080874294,0.044545285,0.31979156,0.3531201,0.18696031,-0.3087651,0.31245852,-0.23777983,-0.16936624,0.16240203,-0.2627988,-0.37536144,0.21187216,0.26463455,-0.40142852,-0.06249581,-0.21385157,0.3623572,-0.09456283,0.41877013,-0.382529,0.2644214,0.3438589,0.2115722,0.20510484,0.303444,-0.31914234,0.30089867,0.072450124,-0.21250221,-0.27850014,-0.3269423,0.1413096,-0.05792142,-0.278503,0.09404659,-0.18124606,0.15987647,-0.18195957,0.32487297,0.042108793,0.05631581,0.26188743,-0.30280668
BRAF,-0.13775478,-0.073643215,0.22298118,0.06416035,-0.31756634,-0.3679016,0.124085285,0.2565268,0.28931326,-0.17380998,-0.07227939,-0.26291198,0.24700855,0.24057814,-0.2423239,0.4126462,0.20790002,0.025467616,0.22151367,0.32008585,-0.08485766,-0.046892505,0.31502527,0.34918922,0.17640163,-0.302173,0.30237514,-0.23127675,-0.16070816,0.15658815,-0.25891635,-0.37681258,0.21360219,0.2613114,-0.39008725,-0.059778787,-0.20894805,0.3562497,-0.08224232,0.40691012,-0.37073514,0.25975734,0.3351367,0.20801207,0.1975144,0.29339132,-0.31863895,0.29178214,0.06646529,-0.20910175,-0.27383962,-0.31883085,0.13760357,-0.045730088,-0.2764973,0.08677034,-0.17737858,0.16172117,-0.17671785,0.31767854,-0.001319577,0.05373054,0.24926181,-0.29629055
RUNX1,-0.13050994,-0.067407385,0.20775568,0.06117966,-0.30555397,-0.34678677,0.1166129,0.24662478,0.27038893,-0.16509889,-0.06706716,-0.24508305,0.23713353,0.22862357,-0.23209432,0.3966192,0.19901682,0.0053180903,0.21361543,0.30985165,-0.08076861,-0.041510835,0.29773712,0.33250803,0.17020436,-0.2825301,0.2887186,-0.21739054,-0.15522067,0.14879541,-0.24338442,-0.35849804,0.20004597,0.24913463,-0.37648657,-0.05530706,-0.19821191,0.3326697,-0.078428045,0.3921586,-0.3528601,0.24547966,0.3082593,0.19938782,0.19506693,0.27881348,-0.3039909,0.27743563,0.06555728,-0.19750245,-0.25849646,-0.30648375,0.123941526,-0.044134952,-0.26048887,0.089596376,-0.16553657,0.15337592,-0.16997644,0.307821,0.009035405,0.052453034,0.23538478,-0.27957368
BRD4,-0.13882211,-0.07470723,0.22658876,0.065214075,-0.3218981,-0.36954808,0.12812625,0.25498378,0.28785005,-0.17682508,-0.06993461,-0.2632815,0.25044715,0.24325132,-0.24615845,0.41756022,0.20871165,0.056956187,0.22348703,0.32647192,-0.0846647,-0.072197974,0.31538564,0.35413155,0.17751136,-0.30661356,0.30568033,-0.2295793,-0.16335994,0.15763876,-0.25849903,-0.3798839,0.21527505,0.2630291,-0.39418384,-0.059259582,-0.21057141,0.3586521,-0.084589526,0.4094404,-0.3756752,0.2633422,0.3362296,0.21199377,0.19954115,0.29748768,-0.32113108,0.29570872,0.06641214,-0.212811,-0.27643558,-0.32116577,0.13935643,-0.046916187,-0.27933612,0.0918105,-0.17802152,0.16214845,-0.1754669,0.32110143,-0.016533045,0.052196957,0.25026524,-0.2976821
SMAD2,-0.13490532,-0.069440976,0.21893492,0.062083684,-0.31851822,-0.36375818,0.119437486,0.2515788,0.2812856,-0.17394859,-0.07010467,-0.25612774,0.24475563,0.23752011,-0.24140804,0.41194546,0.20513439,0.032006852,0.21934968,0.3230492,-0.08353433,-0.06004883,0.30822533,0.34588742,0.1726309,-0.298073,0.30118695,-0.2251166,-0.16194083,0.15318562,-0.2506386,-0.37187576,0.21025524,0.25730276,-0.3920346,-0.057382893,-0.20579249,0.34777465,-0.07840026,0.4071666,-0.3691633,0.25702173,0.3257624,0.20862937,0.19745453,0.29110754,-0.3172988,0.2891162,0.06625731,-0.20711419,-0.2716545,-0.31722066,0.1300123,-0.043843206,-0.27179474,0.091037594,-0.17140226,0.15685815,-0.17331608,0.3200575,-0.006642709,0.050426833,0.24457633,-0.291679
AXIN2,-0.1356384,-0.07270638,0.21727923,0.06485382,-0.31255972,-0.3574894,0.12595889,0.25089347,0.2787088,-0.17084065,-0.0692269,-0.25182813,0.24447277,0.2378597,-0.24101259,0.4049198,0.20655844,0.040553346,0.22003073,0.31717014,-0.07839575,-0.05770448,0.30594224,0.3434497,0.17609593,-0.2929522,0.29665786,-0.2245722,-0.15936452,0.15327907,-0.2521419,-0.36855513,0.20939583,0.25633854,-0.3853848,-0.056965556,-0.20593973,0.34617972,-0.084452346,0.40043998,-0.3654962,0.25264028,0.32045037,0.20510137,0.1993128,0.28970808,-0.31170905,0.28816277,0.06714573,-0.2041095,-0.26727027,-0.31422797,0.13048506,-0.051712267,-0.26927823,0.09127894,-0.17345668,0.15979028,-0.17523818,0.31529403,-0.013090992,0.054537848,0.24396184,-0.28847468
RPTOR,-0.13494968,-0.07149603,0.21606046,0.062282763,-0.31299713,-0.35842568,0.12283817,0.2500594,0.27866098,-0.17053196,-0.06728853,-0.25277096,0.24330933,0.23647407,-0.238832,0.406447,0.20516095,0.04673116,0.2180885,0.3186432,-0.07992124,-0.06791741,0.30473188,0.34213644,0.17410463,-0.29272404,0.2971168,-0.22382765,-0.15827836,0.15358253,-0.25048,-0.36821926,0.20834318,0.25585207,-0.3847137,-0.055398807,-0.20523018,0.34490073,-0.08129453,0.3999433,-0.36298794,0.25248978,0.31992373,0.20530364,0.19813034,0.28846493,-0.3123619,0.28730464,0.06595738,-0.20452808,-0.26618323,-0.31295133,0.12947153,-0.048042078,-0.26951802,0.09033219,-0.17172587,0.15749213,-0.17347026,0.31511888,-0.018187834,0.053328432,0.24237558,-0.28916568
MEN1,-0.1375381,-0.07419804,0.22156668,0.064729795,-0.31971678,-0.36556506,0.12569077,0.25367713,0.28494996,-0.17458658,-0.068276316,-0.25783783,0.24786453,0.241832,-0.24445441,0.41335064,0.20877603,0.07022408,0.22212411,0.3232496,-0.07932178,-0.0827831,0.3101209,0.3482687,0.17867039,-0.30045363,0.3017799,-0.22653908,-0.161754,0.15696572,-0.25329772,-0.37543947,0.21325764,0.2594235,-0.39190358,-0.055163573,-0.2093418,0.35115242,-0.082678966,0.40718263,-0.3699404,0.2580573,0.327523,0.20859666,0.20053603,0.29442984,-0.31836078,0.29214305,0.06606692,-0.20889804,-0.27179903,-0.31821612,0.13125798,-0.051196627,-0.27268738,0.09354022,-0.17553471,0.16180287,-0.17823824,0.3215387,-0.03280072,0.05403568,0.24576165,-0.294736
MET,-0.13439463,-0.07186111,0.21474642,0.06251922,-0.3099813,-0.3550489,0.12531509,0.2510955,0.277884,-0.1676058,-0.06746571,-0.25005707,0.24305476,0.2363511,-0.23947982,0.40351614,0.20579997,0.046048883,0.2196911,0.3157304,-0.07550648,-0.061022226,0.30491465,0.3399221,0.17629169,-0.2918928,0.29403,-0.22402075,-0.15779427,0.15392247,-0.25137484,-0.36766046,0.20668405,0.2562991,-0.38236582,-0.05534164,-0.20323327,0.34406024,-0.08319582,0.39799973,-0.3613294,0.2515459,0.3183182,0.2019364,0.19761586,0.2868673,-0.31060567,0.28688282,0.064076275,-0.2026557,-0.26548436,-0.311597,0.12925276,-0.051940586,-0.26666352,0.09051041,-0.17105603,0.15956098,-0.17563798,0.3133758,-0.021794856,0.055344526,0.24291027,-0.2876023
CTCF,-0.14077114,-0.07571856,0.21589887,0.06320368,-0.3107372,-0.366304,0.12075509,0.25062335,0.28266585,-0.17171052,-0.07146169,-0.2582339,0.24699935,0.23988327,-0.2416277,0.41688582,0.20694108,0.047271326,0.22195834,0.31777814,-0.08409002,-0.061073303,0.3081766,0.34187654,0.1761036,-0.29812717,0.2993469,-0.22796156,-0.16073689,0.15487625,-0.24942449,-0.36384493,0.20651315,0.25878873,-0.39015883,-0.056741774,-0.20695364,0.35101044,-0.08720516,0.4053409,-0.36889684,0.2535307,0.33059847,0.20371337,0.19571756,0.29500857,-0.30711684,0.2915086,0.0721004,-0.20375565,-0.26855052,-0.3158662,0.13241236,-0.05083856,-0.2685196,0.09126447,-0.17451854,0.15358771,-0.17651501,0.31516603,-0.012078686,0.054046623,0.249026,-0.294457
FLCN,-0.14196038,-0.077266924,0.2223179,0.064886436,-0.3179266,-0.37031418,0.12556133,0.25365275,0.28699842,-0.17493942,-0.07056649,-0.2605021,0.25010452,0.24401227,-0.24608326,0.4189541,0.20980263,0.064054936,0.22392282,0.3234092,-0.08310615,-0.07347239,0.31170195,0.3495018,0.17856295,-0.3038283,0.30386996,-0.22977883,-0.1638053,0.15767944,-0.25598782,-0.37281096,0.21215178,0.26220855,-0.39360446,-0.057776283,-0.21087,0.35612303,-0.08805665,0.40812352,-0.37371367,0.25878656,0.33449584,0.20855206,0.19940762,0.29796794,-0.31502122,0.29430404,0.070241325,-0.20935884,-0.27321434,-0.3208927,0.13589735,-0.05252768,-0.27591467,0.09257348,-0.17900908,0.16020232,-0.17701504,0.31842875,-0.02207629,0.054414216,0.2517184,-0.29822132
KDM5C,-0.13644841,-0.0714964,0.21961954,0.0625372,-0.3156984,-0.3626557,0.12488796,0.25260094,0.28217375,-0.17276219,-0.07172608,-0.2560942,0.24587713,0.23931709,-0.24173006,0.4098315,0.20743501,0.03378742,0.22055003,0.32183906,-0.08025974,-0.05195964,0.30864352,0.345523,0.17620839,-0.29832,0.30101222,-0.22705173,-0.16112912,0.1552128,-0.25385377,-0.37309244,0.21158874,0.25863376,-0.38987774,-0.056917224,-0.20704442,0.3510628,-0.083034664,0.4049527,-0.36862093,0.2567219,0.3268044,0.20807578,0.19910173,0.2923875,-0.31636083,0.29183063,0.066293806,-0.20711748,-0.27050126,-0.31599262,0.13305697,-0.049310222,-0.2725075,0.09071972,-0.17432556,0.15887691,-0.17500672,0.31925178,-0.009466564,0.05253926,0.2463653,-0.2922161
PIK3CD,-0.1371942,-0.07361693,0.21956876,0.0641806,-0.31680655,-0.36244914,0.12548378,0.25229606,0.2818876,-0.17337888,-0.068637826,-0.25551826,0.24647644,0.23989178,-0.24311924,0.4101789,0.20732078,0.058328867,0.22091833,0.3211894,-0.08006267,-0.07470298,0.30870128,0.3455029,0.17628764,-0.29799223,0.29932928,-0.2262646,-0.16076924,0.15527107,-0.25271383,-0.37284225,0.21056043,0.2588219,-0.38989967,-0.056691684,-0.20723239,0.3490916,-0.08318942,0.40435064,-0.3672763,0.25596264,0.32508346,0.20739552,0.19892418,0.2923699,-0.31548706,0.29023,0.06561036,-0.20686454,-0.27096987,-0.31653753,0.1313334,-0.050289966,-0.2716903,0.09219449,-0.17360395,0.16022179,-0.17697866,0.31844124,-0.024084259,0.053484045,0.24501257,-0.29251334
IRS2,-0.1406295,-0.07370381,0.22205617,0.06478953,-0.31876945,-0.37181056,0.12778473,0.2552347,0.28781956,-0.17318529,-0.07408472,-0.26058316,0.25018692,0.2452443,-0.24772927,0.41738755,0.21030319,0.034274735,0.22697438,0.32271907,-0.081547745,-0.04403143,0.31273326,0.34933406,0.17962947,-0.3063516,0.30503747,-0.22881132,-0.16550279,0.15795809,-0.25634524,-0.3736793,0.21348438,0.26138446,-0.39235106,-0.057636507,-0.21040758,0.35796833,-0.08726367,0.40720862,-0.3760836,0.25886396,0.33595303,0.20975772,0.19981512,0.29782388,-0.31546357,0.29286468,0.067979604,-0.20883022,-0.2717546,-0.32055032,0.13692689,-0.05308177,-0.2755947,0.09072373,-0.17772004,0.15995452,-0.17810658,0.31909493,-0.008010747,0.05465777,0.2534034,-0.2974119
DNMT1,-0.14153242,-0.07676124,0.2226564,0.06542723,-0.3200951,-0.3700698,0.12890205,0.2542444,0.28703243,-0.17360255,-0.07081485,-0.26006055,0.2509829,0.24606958,-0.24810366,0.41807607,0.21269196,0.082390934,0.22821245,0.322171,-0.078851275,-0.08504279,0.3135986,0.3483467,0.18007857,-0.30638486,0.3026237,-0.23094009,-0.1628566,0.15640724,-0.25700012,-0.3728881,0.21213159,0.2640163,-0.39517224,-0.05703095,-0.20965287,0.357997,-0.090036176,0.40795797,-0.3748902,0.25916588,0.33526433,0.20947263,0.1985006,0.2969975,-0.31554413,0.2959466,0.068881296,-0.21024768,-0.27366865,-0.32156056,0.13634287,-0.05448761,-0.27572915,0.09195799,-0.17680393,0.16098423,-0.1800811,0.31987408,-0.03659701,0.054836087,0.2522531,-0.30124614
CARD11,-0.14160275,-0.077351615,0.22141483,0.06677876,-0.31734562,-0.3684761,0.12880343,0.2549427,0.28525004,-0.17377079,-0.07113633,-0.2592002,0.24958889,0.24517924,-0.24775422,0.41604128,0.21119502,0.07384876,0.2271357,0.32017407,-0.081546545,-0.080095485,0.31156954,0.3455184,0.17865844,-0.30391484,0.30038238,-0.22934693,-0.1629954,0.155754,-0.2544194,-0.37006736,0.21022518,0.26225245,-0.39341614,-0.057841636,-0.2092861,0.35743552,-0.08967377,0.40573412,-0.37458315,0.25757062,0.3333109,0.20843461,0.19873597,0.29714587,-0.3124178,0.2933977,0.070863806,-0.20791572,-0.27201468,-0.3197177,0.13600938,-0.054576337,-0.27331442,0.09157195,-0.17650485,0.1589022,-0.180601,0.3185584,-0.02958664,0.055197388,0.2513978,-0.29844287
JAK2,-0.13583899,-0.06943923,0.219906,0.06171621,-0.31535557,-0.36312327,0.12536676,0.25422984,0.28230795,-0.17174293,-0.07360444,-0.25509074,0.24667428,0.23928568,-0.24330685,0.40986818,0.20726919,0.0023551732,0.223672,0.32069406,-0.07890184,-0.02161938,0.31087697,0.34730864,0.17737386,-0.29825574,0.3016908,-0.22838089,-0.16187413,0.15494612,-0.2562315,-0.37374365,0.21130231,0.2595178,-0.38834518,-0.05818557,-0.20707944,0.35069662,-0.08325351,0.40552056,-0.369638,0.2565251,0.32672936,0.20762236,0.19964668,0.29208338,-0.3162989,0.29176828,0.06422215,-0.20710939,-0.27118316,-0.31806684,0.13345337,-0.049999956,-0.27313137,0.09024438,-0.17333025,0.16027087,-0.17563725,0.31816027,0.008177407,0.053406976,0.24848916,-0.29184246
LATS2,-0.13395241,-0.06872562,0.21618542,0.061843522,-0.31187737,-0.35718316,0.12112823,0.24881478,0.27757928,-0.16937661,-0.07103352,-0.2524284,0.24255675,0.23454756,-0.23819213,0.40629205,0.20469055,0.0074582994,0.21812254,0.3169728,-0.083312675,-0.041338194,0.30600733,0.34282285,0.17166369,-0.29351753,0.29777735,-0.22432871,-0.1577705,0.15126804,-0.25172937,-0.36874512,0.20832631,0.25680727,-0.38329616,-0.05737351,-0.20382893,0.34548515,-0.08015278,0.40103406,-0.3639791,0.2525477,0.3222102,0.20454882,0.19491455,0.2875763,-0.311796,0.28779027,0.06507701,-0.20370468,-0.2668993,-0.31225052,0.13214308,-0.043289706,-0.26865,0.08766052,-0.16971314,0.155415,-0.17181495,0.31341624,0.012083651,0.049527697,0.24354127,-0.2879892
BRIP1,-0.13219175,-0.06656504,0.21449846,0.06119199,-0.31234863,-0.35627824,0.116270155,0.2483352,0.2761527,-0.16973084,-0.072139286,-0.2521938,0.2399793,0.2322615,-0.23526785,0.40525913,0.20130746,-0.008196387,0.21547318,0.3170317,-0.0862645,-0.03373452,0.3035145,0.3407438,0.17004888,-0.29122066,0.296789,-0.22236827,-0.15899603,0.14953727,-0.24829596,-0.36575726,0.20667225,0.25302175,-0.38388592,-0.058133345,-0.20204829,0.34191254,-0.07714126,0.40083253,-0.36284107,0.25248328,0.31958508,0.20548636,0.19492513,0.28511667,-0.3108535,0.2844072,0.0662282,-0.20302063,-0.2658016,-0.31200197,0.12983768,-0.040375926,-0.26810363,0.08822412,-0.16886836,0.1532102,-0.16878799,0.31337726,0.022392526,0.048606727,0.24090773,-0.28620416
ERCC5,-0.14225218,-0.075097896,0.21596473,0.06154698,-0.31088072,-0.36773252,0.12086187,0.25381264,0.28457195,-0.17164697,-0.07281247,-0.25753862,0.24821839,0.24139097,-0.24292716,0.41861323,0.20891191,0.03460835,0.2239163,0.32019776,-0.08132256,-0.04276241,0.30852535,0.34247515,0.17866683,-0.29801995,0.30066067,-0.22990042,-0.1626184,0.15652272,-0.25260928,-0.36539578,0.20571385,0.26055998,-0.39188787,-0.055868812,-0.20840278,0.3531335,-0.08930439,0.40811852,-0.3701721,0.25522384,0.33130983,0.20428932,0.19949175,0.296126,-0.30952454,0.2928276,0.07206323,-0.20493719,-0.2699902,-0.31792262,0.13249275,-0.053947616,-0.27006742,0.091000594,-0.17604434,0.15508866,-0.17805299,0.31647933,-0.00811898,0.055530414,0.25158572,-0.2965576
ABL1,-0.13778707,-0.073441215,0.22198856,0.06539877,-0.3182757,-0.36567348,0.124882385,0.2524257,0.2836448,-0.17439097,-0.06921296,-0.25780416,0.2474455,0.24012503,-0.24341981,0.41299576,0.20781252,0.044560026,0.22131419,0.3224827,-0.083304234,-0.06596584,0.31143296,0.35072574,0.17632174,-0.30017984,0.302623,-0.22794756,-0.16055022,0.15518111,-0.25528556,-0.37541768,0.21411948,0.26018578,-0.390472,-0.057972558,-0.20945387,0.35315022,-0.082904145,0.40603787,-0.3713131,0.2577561,0.32891482,0.20930772,0.19931625,0.2940308,-0.3174225,0.2924312,0.066601835,-0.2093353,-0.27257857,-0.31905246,0.1347025,-0.04702634,-0.27467176,0.09145733,-0.17577612,0.16036136,-0.17482437,0.318671,-0.011115934,0.052924283,0.24708864,-0.29413712
TGFBR1,-0.13200144,-0.046833955,0.21640232,0.046680607,-0.32017788,-0.36565176,0.11549604,0.2601356,0.28320736,-0.16887718,-0.09761065,-0.2536736,0.24431401,0.23533143,-0.23878187,0.40916455,0.20594364,-0.24670707,0.23518163,0.32195175,-0.07242764,0.20891836,0.3173019,0.34975457,0.18528463,-0.29793483,0.3092572,-0.22947007,-0.16372131,0.15286946,-0.25863522,-0.37050354,0.20344287,0.25057426,-0.39134812,-0.067263424,-0.20235011,0.33922577,-0.07988173,0.41361648,-0.37230003,0.25814575,0.32364795,0.20710388,0.20537613,0.2864043,-0.3179275,0.28798968,0.06054691,-0.20966494,-0.26840848,-0.32562837,0.13532324,-0.047075998,-0.27349097,0.08925346,-0.16788232,0.15477775,-0.16974589,0.32096916,0.15472072,0.04981903,0.25387812,-0.2883991
CSF1R,-0.13147743,-0.07001297,0.20935805,0.062767446,-0.30830348,-0.34923685,0.12189461,0.2483455,0.27240142,-0.16599149,-0.066362195,-0.2457019,0.23926087,0.23249707,-0.23588526,0.39751625,0.20202696,0.035946194,0.21647407,0.31111565,-0.07577148,-0.05826492,0.29952496,0.33341658,0.17358458,-0.28537625,0.2899568,-0.21913838,-0.15650633,0.15219936,-0.24494106,-0.360618,0.20208266,0.25030103,-0.3785475,-0.055118356,-0.1995954,0.33312723,-0.08101725,0.3927303,-0.3552515,0.24590051,0.30888933,0.1990218,0.19612409,0.2816468,-0.3056583,0.27988225,0.06470896,-0.19857962,-0.26015896,-0.30801058,0.12289857,-0.050727308,-0.26159692,0.09249849,-0.1669832,0.15757158,-0.17444724,0.31053424,-0.014985942,0.056388874,0.23708178,-0.2810595
FOXP1,-0.13223103,-0.06835289,0.21112387,0.061116964,-0.30796093,-0.3525999,0.118815385,0.2489272,0.27416337,-0.16705024,-0.069206566,-0.24837786,0.23911838,0.23154509,-0.23458263,0.40099436,0.20169163,0.0052616447,0.21486756,0.31323302,-0.082680434,-0.04186224,0.30123746,0.33649814,0.16925012,-0.28729618,0.2931492,-0.22134858,-0.15633714,0.1507818,-0.24737068,-0.3630675,0.20381942,0.25330615,-0.38054594,-0.055540875,-0.20046356,0.3391746,-0.07930685,0.3966325,-0.35775492,0.24833377,0.31415814,0.2006002,0.19473648,0.28401658,-0.30776405,0.2819065,0.066177346,-0.20019192,-0.26209867,-0.30858094,0.1279181,-0.043969747,-0.2650807,0.08773227,-0.16673207,0.15466407,-0.1708348,0.31085584,0.010970418,0.051793568,0.23841697,-0.2836732
RAD50,-0.14011241,-0.075694285,0.2185886,0.06538036,-0.31501126,-0.36490542,0.12615421,0.25387546,0.28267068,-0.17176032,-0.070044726,-0.2563155,0.24748638,0.24241194,-0.24518071,0.41346592,0.20936018,0.06538032,0.22546881,0.31791836,-0.08085602,-0.074840754,0.3089883,0.34261662,0.17742802,-0.30018154,0.29751807,-0.227112,-0.16156878,0.15402944,-0.2522232,-0.36683246,0.20714022,0.2601955,-0.39075902,-0.05701047,-0.20721728,0.3530475,-0.08820666,0.4033411,-0.37084413,0.25503725,0.32893836,0.20624705,0.19808704,0.29379642,-0.30992433,0.2903327,0.07022608,-0.20566078,-0.26935923,-0.31780252,0.13353825,-0.0536606,-0.27078587,0.09078555,-0.17423727,0.15752544,-0.17903793,0.31620273,-0.025375895,0.0551179,0.24934292,-0.29580647
KIT,-0.13366376,-0.06864344,0.21490782,0.0619715,-0.31288606,-0.35633677,0.11927289,0.2496301,0.2770538,-0.16953586,-0.069628365,-0.25186116,0.24101351,0.23434913,-0.23714767,0.40581584,0.20409624,0.018728375,0.21692628,0.3168319,-0.08229867,-0.050268896,0.30432925,0.340479,0.17275141,-0.2920013,0.29596555,-0.22267571,-0.15854365,0.15156874,-0.24942285,-0.3669452,0.20671095,0.25430977,-0.38457888,-0.057348024,-0.2032369,0.34231377,-0.07890159,0.40029788,-0.36249578,0.25232932,0.3190022,0.20457263,0.1963796,0.2863117,-0.31153542,0.28520513,0.065726295,-0.20270698,-0.2657547,-0.31256345,0.12859201,-0.04448525,-0.26772088,0.08958242,-0.16966033,0.15562838,-0.17206417,0.31466585,0.0017349995,0.051433455,0.24143407,-0.28765002
SMO,-0.13727333,-0.070797145,0.22244996,0.062531546,-0.31917334,-0.3668192,0.12490532,0.25257546,0.2848729,-0.17450935,-0.073540255,-0.2607153,0.24851215,0.24080776,-0.24318257,0.4138106,0.20794311,0.01890121,0.22268349,0.3240323,-0.08224564,-0.0401144,0.31331643,0.3503226,0.17583853,-0.30228058,0.30448246,-0.22827178,-0.1609753,0.1554342,-0.25660676,-0.37598336,0.21329603,0.2598784,-0.39185685,-0.058580697,-0.20768875,0.3536073,-0.08286708,0.40825844,-0.37202537,0.25932854,0.3311675,0.20996882,0.19831528,0.29411724,-0.31853855,0.29305446,0.065278016,-0.20964131,-0.27216697,-0.3182174,0.13652475,-0.045333713,-0.27532586,0.08951523,-0.1740504,0.15837362,-0.17367548,0.31995785,0.0031297319,0.050879702,0.2476063,-0.29534677
DDR2,-0.13923249,-0.07670251,0.21545345,0.06585406,-0.3126585,-0.3632161,0.12554891,0.25480893,0.28281856,-0.16962929,-0.0662374,-0.2547757,0.24706963,0.24161181,-0.24500433,0.4120761,0.20783813,0.08110538,0.22321537,0.3169646,-0.07953527,-0.086143136,0.3053155,0.33999437,0.1776336,-0.29737714,0.29592204,-0.22324155,-0.16241986,0.156082,-0.24895178,-0.36578235,0.20641693,0.25900018,-0.3869028,-0.053051047,-0.20683509,0.3499818,-0.08619936,0.40081877,-0.36796704,0.25309372,0.32583266,0.20388553,0.19889711,0.29309762,-0.30893448,0.28664458,0.0681674,-0.20261016,-0.26634866,-0.3142215,0.12878916,-0.055248648,-0.26733854,0.09124839,-0.17323123,0.15821056,-0.1806539,0.3155202,-0.04025401,0.057403125,0.2474509,-0.29276443
CDC73,-0.13530372,-0.07079928,0.21694173,0.063618384,-0.3172411,-0.36033776,0.11861424,0.2516345,0.28022107,-0.17269513,-0.06897481,-0.2542202,0.24368879,0.2359415,-0.23955864,0.40950748,0.20446353,0.033454366,0.21890545,0.31916752,-0.0821357,-0.059356466,0.30598748,0.34341347,0.17631423,-0.29449803,0.29873657,-0.22189558,-0.16043702,0.15362157,-0.24943107,-0.3690921,0.20824905,0.2537557,-0.38818306,-0.056547187,-0.20582825,0.34296763,-0.079092704,0.40359777,-0.36564332,0.25535983,0.32085398,0.20634429,0.19894399,0.2879554,-0.31371468,0.28596956,0.06581498,-0.20609176,-0.26779115,-0.3157504,0.1283577,-0.046071135,-0.26858908,0.09319773,-0.1717041,0.15756962,-0.17389663,0.31729966,-0.007148728,0.05194498,0.2418669,-0.2897071
B2M,-0.139101,-0.075272344,0.224976,0.065777004,-0.32069826,-0.3679653,0.1278209,0.25368133,0.2864496,-0.1771172,-0.07084073,-0.26147264,0.24955481,0.24261981,-0.24602072,0.41515648,0.2094098,0.060010877,0.22262451,0.3245303,-0.083772585,-0.07413016,0.31352538,0.35218814,0.1778999,-0.30392027,0.30455837,-0.229409,-0.16327411,0.15679634,-0.2555464,-0.3770072,0.21550567,0.2616861,-0.39425465,-0.058684997,-0.21080361,0.3558383,-0.08424373,0.40831894,-0.3733457,0.26042482,0.33322084,0.21229315,0.19972776,0.2967732,-0.3192606,0.29515228,0.06670373,-0.2122351,-0.2749515,-0.3202484,0.13666216,-0.049440034,-0.27745605,0.09274226,-0.17734978,0.16138177,-0.1764776,0.3217463,-0.020128034,0.052157313,0.24755943,-0.29712978
WT1,-0.13502464,-0.06810485,0.21637502,0.061352238,-0.31719014,-0.3612563,0.11899403,0.2521523,0.28012437,-0.17212929,-0.071890146,-0.25465798,0.24467033,0.23663047,-0.23928869,0.40988144,0.20527828,-0.001429461,0.22008991,0.32022518,-0.08222642,-0.028790558,0.3075234,0.34439728,0.17531264,-0.29529434,0.30034634,-0.2241788,-0.15979971,0.15379232,-0.25135553,-0.3700051,0.20770788,0.25535935,-0.38854018,-0.057687804,-0.20532706,0.3434754,-0.0801802,0.40468657,-0.36593914,0.25483954,0.32147282,0.2066023,0.19892117,0.28822792,-0.31495678,0.28635645,0.06598407,-0.20611486,-0.26783687,-0.316212,0.12944838,-0.04427956,-0.27037024,0.0918619,-0.17037016,0.15722778,-0.1735141,0.31704903,0.015258767,0.051960047,0.24346383,-0.29053324
MRE11,-0.13743836,-0.06565275,0.22121115,0.057524044,-0.32042462,-0.36710906,0.12612532,0.25910807,0.28620592,-0.17382951,-0.081766546,-0.2574005,0.25032073,0.242274,-0.24494192,0.41235256,0.21125808,-0.05956307,0.22992544,0.32503724,-0.0739177,0.048441127,0.3149882,0.35012108,0.18471166,-0.30166477,0.30696583,-0.23059872,-0.16480356,0.15848845,-0.25999933,-0.3759442,0.20960686,0.2588774,-0.39445657,-0.05996076,-0.20870924,0.35076788,-0.08672869,0.4118662,-0.37399203,0.2608059,0.32921553,0.20964685,0.20489031,0.2934731,-0.32106724,0.29337588,0.06443199,-0.21096273,-0.27307746,-0.32184985,0.13558638,-0.05453374,-0.27538225,0.09287906,-0.17487574,0.16214046,-0.17822762,0.32324216,0.042162944,0.05475918,0.25290626,-0.29436737
PIK3CB,-0.1346475,-0.07013407,0.21518011,0.061118647,-0.31197068,-0.35643855,0.1257436,0.2526597,0.27860677,-0.1684762,-0.0702125,-0.2501583,0.24465148,0.23771867,-0.24058905,0.4042457,0.20714885,0.024288243,0.22118361,0.3172108,-0.07335078,-0.037146483,0.30556417,0.34048736,0.1785315,-0.29230505,0.2964447,-0.2243618,-0.15969715,0.15539001,-0.25232202,-0.36784488,0.20593733,0.2563258,-0.38431317,-0.055324372,-0.2041255,0.34348762,-0.08441604,0.4008369,-0.362988,0.2528079,0.31843272,0.20365757,0.2003368,0.28741917,-0.31240273,0.2869336,0.06424948,-0.2043714,-0.26652333,-0.3132366,0.12887706,-0.053926297,-0.26757336,0.091923304,-0.17132041,0.16012594,-0.17757678,0.3157386,-0.010052232,0.055825822,0.24482176,-0.28814083
FOXO1,-0.13573688,-0.061520193,0.22421792,0.05537362,-0.3191588,-0.3684072,0.12943888,0.2586551,0.28530774,-0.17169419,-0.08669424,-0.2560142,0.250414,0.24286416,-0.2460401,0.40983415,0.21018094,-0.11863113,0.23315814,0.32453945,-0.0711922,0.09920749,0.32111067,0.35248083,0.18488525,-0.30398816,0.30794027,-0.23482426,-0.16425787,0.15880327,-0.2684149,-0.37872016,0.20918566,0.26008007,-0.39074686,-0.064842075,-0.20849314,0.35547584,-0.08751533,0.41014048,-0.37384176,0.2614707,0.33179635,0.20911737,0.2043899,0.29311126,-0.31974465,0.2931106,0.060571056,-0.21241075,-0.27401724,-0.32540268,0.14188561,-0.054353252,-0.28007218,0.08833766,-0.1756619,0.16350561,-0.17397676,0.31714097,0.07536456,0.052757036,0.25813895,-0.2929273
ARID5B,-0.13676012,-0.07020886,0.22019497,0.06141166,-0.31753004,-0.36502802,0.12507407,0.25353533,0.28337383,-0.17357156,-0.07311496,-0.2573697,0.24745448,0.23994678,-0.2423332,0.41173393,0.20749396,0.019521758,0.22216672,0.3231196,-0.080276534,-0.037488397,0.31046486,0.34707952,0.17720935,-0.29986084,0.30354893,-0.22769806,-0.16172713,0.156715,-0.25591713,-0.3740058,0.21159741,0.25832623,-0.39085636,-0.05728284,-0.20733471,0.35119992,-0.08328711,0.40739703,-0.36979184,0.25851065,0.32792604,0.20859963,0.19992308,0.29316998,-0.3177295,0.29212794,0.06534683,-0.2086755,-0.27217472,-0.31747937,0.13423806,-0.048750512,-0.27418151,0.09153597,-0.17430542,0.15944369,-0.1754451,0.31979212,-0.00096161664,0.052884087,0.2472575,-0.2934294
INHBA,-0.1347731,-0.07030146,0.21548529,0.06193811,-0.31028166,-0.3568994,0.12167272,0.24939504,0.27801254,-0.1690898,-0.06752835,-0.25206542,0.24241892,0.23413184,-0.2377363,0.40571517,0.2030259,0.03354945,0.21730839,0.31689838,-0.08170658,-0.058155026,0.30603978,0.3414782,0.17256345,-0.29222962,0.29608214,-0.22426921,-0.15771727,0.15246719,-0.2523588,-0.36731538,0.20771608,0.25592172,-0.38279617,-0.055601873,-0.20405802,0.34670174,-0.08092534,0.39927852,-0.36200422,0.252706,0.32124257,0.20405549,0.19639544,0.28692427,-0.3110817,0.28674024,0.06470236,-0.2041489,-0.26698568,-0.3119468,0.13144776,-0.04610969,-0.26904,0.08827856,-0.17142147,0.15623815,-0.17150539,0.31201187,-0.007905293,0.052391913,0.24282956,-0.28776288
ANKRD11,-0.14344978,-0.077515125,0.22718397,0.066781126,-0.32425615,-0.3776368,0.1294057,0.25605828,0.29140308,-0.17762694,-0.07316097,-0.26586318,0.25383496,0.24883428,-0.2509685,0.42405164,0.21336126,0.074482016,0.22891179,0.32673928,-0.084032446,-0.080122255,0.3173102,0.354405,0.18047018,-0.3126076,0.30848363,-0.23263961,-0.16589966,0.15880658,-0.25923663,-0.3778546,0.21670234,0.26572865,-0.39937228,-0.058514867,-0.21309622,0.36437356,-0.08975209,0.41238248,-0.38123465,0.26328793,0.34269363,0.21411891,0.19974703,0.3019977,-0.31959105,0.29885086,0.07030823,-0.21419413,-0.27725473,-0.32495445,0.14068542,-0.052275,-0.28044403,0.09241201,-0.18006518,0.16130355,-0.17988154,0.32290006,-0.027228478,0.05333338,0.25531316,-0.30458233
IRF4,-0.1356347,-0.06796153,0.22091398,0.062186964,-0.31883252,-0.3650611,0.122967154,0.25342727,0.28286132,-0.17364386,-0.075895995,-0.2576762,0.24670348,0.23986173,-0.24294136,0.4116764,0.20677158,-0.009873811,0.22335052,0.32325172,-0.08215941,-0.017199222,0.31267464,0.34860918,0.17686138,-0.3002205,0.3030876,-0.22812136,-0.16249812,0.15473954,-0.25506502,-0.37505174,0.21154901,0.2590537,-0.39187565,-0.060266167,-0.2070265,0.35019714,-0.082148656,0.40785283,-0.37082306,0.25748503,0.32807183,0.20948835,0.19906136,0.29240787,-0.3177472,0.2914892,0.065791816,-0.20830792,-0.27259582,-0.31900015,0.13390745,-0.046146303,-0.27367005,0.091260694,-0.17296316,0.15887497,-0.17463556,0.32003576,0.02036046,0.05133446,0.24773829,-0.2930048
